/*!
 * The following copyright notice may not be removed under any circumstances.
 * 
 * Copyright:
 * Copyright © 1986-1992 SWFTE International, Ltd. All rights reserved
 * 
 * Trademark:
 * Futuri Condensed is a trademark of SWFTE International, Ltd.
 */
Cufon.registerFont({"w":789,"face":{"font-family":"Futuri Condensed","font-weight":400,"font-stretch":"normal","units-per-em":"2048","panose-1":"0 0 0 0 0 0 0 0 0 0","ascent":"1638","descent":"-410","x-height":"18","bbox":"-340 -1974 3327 480","underline-thickness":"70","underline-position":"-115","unicode-range":"U+0020-U+F002"},"glyphs":{" ":{"w":426},"!":{"d":"369,-1462r0,1105r-180,0r0,-1105r180,0xm164,-96v0,-63,50,-109,115,-109v66,0,113,43,113,109v0,63,-52,112,-115,112v-65,0,-113,-47,-113,-112","w":556},"\"":{"d":"496,-1433r0,551r-119,0r0,-551r119,0xm213,-1433r0,551r-117,0r0,-551r117,0","w":588},"#":{"d":"1164,-984r310,0r-45,119r-312,0r-96,277r332,0r-43,119r-332,0r-166,469r-148,0r168,-469r-264,0r-168,469r-140,0r164,-469r-319,0r43,-119r321,0r95,-277r-345,0r45,-119r345,0r168,-474r143,0r-164,474r261,0r168,-474r143,0xm877,-588r97,-277r-265,0r-92,277r260,0","w":1579},"$":{"d":"53,-1070v0,-208,54,-339,211,-392r0,-211r80,0r0,195r93,0r0,-195r80,0r0,207v51,20,83,35,94,44v31,25,68,80,111,165r-162,80v-20,-73,-65,-131,-146,-133v-119,-1,-171,87,-171,217v0,44,14,84,43,121v41,52,121,129,251,213v102,66,194,207,193,369v-1,168,-91,340,-213,386r0,213r-80,0r0,-193v-35,0,-50,-1,-88,5r0,188r-85,0r0,-205v-113,-37,-162,-96,-213,-205r164,-92v23,75,65,130,148,133v156,5,209,-192,145,-332v-19,-42,-39,-81,-71,-105v-159,-120,-270,-212,-324,-287v-40,-55,-60,-117,-60,-186"},"%":{"d":"76,-1101v2,-227,45,-375,240,-375v105,0,176,28,214,84v41,61,62,176,62,346v0,154,-15,260,-45,319v-36,71,-106,106,-209,106v-163,0,-223,-67,-248,-214v-9,-57,-14,-146,-14,-266xm1054,-1482r123,0r-660,1498r-130,0xm334,-1341v-101,0,-113,99,-113,226v0,104,4,177,11,218v17,97,55,145,112,145v33,0,56,-24,75,-71v32,-80,34,-370,-1,-449v-20,-46,-46,-69,-84,-69xm982,-459v1,-226,47,-375,240,-375v105,0,176,28,214,84v42,61,63,177,63,348v0,154,-15,260,-45,319v-36,71,-106,106,-210,106v-163,0,-222,-68,-248,-216v-9,-57,-14,-145,-14,-266xm1240,-697v-99,0,-112,98,-112,223v0,106,4,179,11,220v17,97,55,145,114,145v33,0,56,-24,75,-70v32,-78,33,-371,-2,-449v-20,-45,-47,-69,-86,-69","w":1574},"&":{"d":"463,-1482v169,0,315,131,308,303v-8,181,-148,300,-250,406r215,353r137,-189r136,96r-181,244r164,269r-219,0r-76,-125v-94,85,-147,137,-289,141v-197,5,-334,-183,-326,-391v8,-207,85,-278,211,-422v-86,-142,-129,-269,-129,-382v0,-163,137,-303,299,-303xm476,-1324v-117,0,-152,118,-119,231v11,39,35,96,71,173v65,-66,107,-118,131,-154v59,-91,39,-250,-83,-250xm258,-375v-7,137,133,268,260,185v27,-17,57,-46,91,-87r-228,-367v-75,95,-116,142,-123,269","w":1046},"'":{"d":"201,-1554r156,49r-189,513r-100,-29","w":420},"(":{"d":"303,-595v-5,404,75,651,185,972r-172,56v-170,-392,-258,-997,-155,-1509v27,-137,79,-315,155,-533r172,51v-108,315,-180,573,-185,963","w":560},")":{"d":"264,-584v6,-398,-76,-656,-182,-970r172,-55v169,392,254,992,155,1501v-28,143,-80,324,-155,541r-172,-52v106,-315,176,-570,182,-965","w":560},"*":{"d":"488,-1150r197,113r-47,84r-197,-113r0,225r-97,0r0,-225r-200,113r-48,-84r197,-113r-197,-115r48,-84r200,111r0,-224r97,0r0,224r197,-111r47,88","w":781},"+":{"d":"1453,-668r0,114r-541,0r0,554r-115,0r0,-554r-545,0r0,-114r545,0r0,-554r115,0r0,554r541,0","w":1706},",":{"d":"189,-244r151,47r-188,513r-101,-31","w":396},"-":{"d":"484,-572r0,164r-408,0r0,-164r408,0","w":560},".":{"d":"84,-92v0,-68,46,-111,115,-111v67,0,113,44,113,111v0,63,-49,110,-113,110v-66,0,-115,-44,-115,-110","w":396},"\/":{"d":"420,-1482r148,0r-424,1671r-144,0","w":568},"0":{"d":"655,-1326v85,159,89,978,6,1161v-55,121,-136,186,-261,186v-121,0,-204,-44,-251,-133v-57,-107,-85,-313,-85,-616v0,-285,25,-483,76,-594v49,-107,133,-160,254,-160v127,0,207,56,261,156xm285,-1204v-40,129,-43,784,3,920v28,84,65,128,124,128v51,0,82,-50,103,-149v29,-138,25,-807,-5,-899v-22,-70,-59,-108,-120,-108v-51,0,-83,37,-105,108"},"1":{"d":"504,-1462r0,1462r-184,0r0,-1285r-181,0r0,-177r365,0"},"2":{"d":"510,-1006v33,-131,19,-306,-129,-306v-41,0,-71,22,-92,65v-25,52,-37,140,-37,263r-184,0v1,-230,44,-390,182,-466v41,-22,90,-32,146,-32v205,-2,334,152,330,363v-3,152,-61,300,-125,416r-285,514r381,0r0,189r-664,0r387,-777v45,-90,67,-138,90,-229"},"3":{"d":"527,-422v0,-211,-66,-255,-279,-261r0,-162v221,-4,262,-33,262,-246v0,-153,-44,-229,-133,-229v-131,0,-137,102,-141,252r-168,0v1,-265,68,-414,307,-414v220,0,324,152,322,385v-1,186,-44,282,-176,332v175,52,195,131,197,373v2,254,-114,415,-355,415v-242,0,-317,-156,-320,-404r172,0v-6,140,41,225,150,225v108,0,162,-89,162,-266"},"4":{"d":"726,-560r0,164r-105,0r0,396r-184,0r0,-396r-396,0r0,-188r412,-878r168,0r0,902r105,0xm180,-560r261,0r0,-582"},"5":{"d":"519,-496v-3,-213,-68,-287,-269,-287v-63,0,-106,9,-166,22r96,-701r513,0r0,181r-361,0r-55,356v286,-45,426,147,426,423v0,333,-202,591,-542,506v-41,-11,-89,-29,-145,-55r48,-172v64,40,118,71,203,71v161,0,255,-166,252,-344"},"6":{"d":"66,-463v0,-214,36,-312,105,-498v51,-137,128,-303,225,-501r217,0v-126,160,-240,414,-332,630v51,-42,88,-72,166,-72v232,0,277,156,277,418v0,187,-30,321,-90,400v-52,69,-132,104,-240,104v-219,0,-328,-160,-328,-481xm248,-449v0,103,14,176,36,223v42,92,188,93,227,2v41,-56,43,-345,17,-422v-21,-64,-67,-96,-138,-96v-95,0,-142,98,-142,293"},"7":{"d":"68,-1462r697,0r-484,1462r-205,0r437,-1289r-445,0r0,-173"},"8":{"d":"701,-1111v0,183,-41,247,-164,318v148,61,176,155,176,371v0,280,-64,438,-317,438v-252,0,-322,-164,-322,-440v0,-213,34,-307,178,-369v-125,-67,-160,-129,-164,-310v-6,-242,73,-381,302,-381v241,0,311,117,311,373xm521,-1099v0,-141,-11,-221,-134,-221v-102,0,-116,109,-116,246v0,137,41,205,123,205v107,0,127,-99,127,-230xm292,-630v-33,74,-42,345,-1,420v40,75,168,75,207,-6v34,-72,36,-349,2,-422v-41,-87,-170,-78,-208,8"},"9":{"d":"396,-1484v223,0,329,212,326,465v-3,305,-104,598,-225,829r-105,190r-212,0v133,-178,247,-395,328,-629v-72,73,-188,98,-285,54v-124,-56,-157,-213,-157,-413v0,-181,32,-312,95,-393v53,-69,132,-103,235,-103xm383,-1308v-45,0,-76,27,-103,77v-46,85,-42,365,-4,445v39,83,198,87,232,-2v42,-66,42,-366,5,-441v-25,-52,-67,-79,-130,-79"},":":{"d":"164,-613v0,-68,46,-111,115,-111v67,0,113,44,113,111v0,66,-47,111,-113,111v-67,0,-115,-44,-115,-111xm164,-92v0,-64,51,-111,115,-111v66,0,113,45,113,111v0,65,-48,110,-113,110v-66,0,-115,-44,-115,-110","w":556},";":{"d":"197,-613v0,-66,45,-111,111,-111v67,0,112,45,112,111v0,63,-46,111,-110,111v-61,0,-113,-50,-113,-111xm269,-244r151,47r-184,513r-101,-31","w":556},"<":{"d":"1441,-205r0,129r-1177,-484r0,-100r1177,-486r0,129r-996,404","w":1706},"=":{"d":"1453,-861r0,117r-1201,0r0,-117r1201,0xm1453,-476r0,115r-1201,0r0,-115r1201,0","w":1706},">":{"d":"1441,-660r0,100r-1177,484r0,-129r1001,-408r-1001,-404r0,-129","w":1706},"?":{"d":"16,-1113v2,-251,36,-371,259,-371v113,0,186,31,220,94v27,49,40,152,40,308v0,158,-17,269,-51,332v-28,52,-72,78,-131,78r0,307r-173,0r0,-432v74,0,122,-14,143,-43v46,-38,51,-348,19,-432v-23,-62,-109,-72,-138,-19v-16,31,-24,90,-24,178r-164,0xm148,-96v0,-66,47,-109,114,-109v69,0,115,41,115,109v0,64,-52,112,-117,112v-66,0,-112,-46,-112,-112","w":560},"@":{"d":"1023,189v249,-4,467,-82,635,-189r44,64v-184,131,-379,216,-661,221v-515,9,-928,-311,-928,-804v0,-543,454,-941,1008,-941v441,0,816,274,816,693v0,315,-248,653,-547,648v-137,-2,-204,-46,-205,-180v-60,97,-164,178,-303,180v-192,3,-310,-139,-310,-336v0,-273,213,-552,474,-552v109,0,191,54,248,162r55,-121r113,0r-128,534v-14,62,-22,99,-22,112v0,63,33,94,98,94v224,2,411,-289,400,-535v-19,-388,-295,-592,-707,-598v-468,-7,-863,373,-863,836v0,432,338,720,783,712xm713,-453v0,138,67,236,197,236v146,0,265,-125,295,-255r56,-246v-31,-124,-100,-186,-207,-186v-208,-2,-341,224,-341,451","w":2050},"A":{"d":"545,-1462r341,1462r-197,0r-72,-289r-332,0r-70,289r-199,0r345,-1462r184,0xm320,-453r260,0r-127,-631","w":900},"B":{"d":"795,-1064v0,175,-71,254,-198,312v151,51,221,116,221,301v0,319,-106,445,-414,451r-287,0r0,-1462r270,0v303,0,408,103,408,398xm312,-832v227,0,289,-30,289,-236v0,-206,-62,-217,-289,-221r0,457xm312,-189v247,-3,305,-14,305,-233v0,-221,-67,-247,-305,-250r0,483","w":890},"C":{"d":"556,-170v76,0,115,-23,180,-53r0,190v-66,32,-125,51,-213,51v-151,0,-262,-65,-334,-195v-69,-123,-103,-308,-103,-553v0,-243,39,-426,112,-554v105,-184,320,-247,538,-157r0,188v-101,-49,-196,-61,-284,-15v-52,27,-88,81,-118,155v-71,172,-67,640,8,794v48,98,116,149,214,149","w":781},"D":{"d":"131,-1462r261,0v195,0,333,52,414,156v85,109,127,301,127,574v0,269,-39,457,-117,565v-80,111,-221,167,-424,167r-261,0r0,-1462xm328,-189v167,0,276,-35,325,-104v53,-74,79,-237,79,-490v0,-214,-30,-352,-89,-415v-50,-53,-155,-79,-315,-79r0,1088","w":1013},"E":{"d":"709,-185r0,185r-584,0r0,-1462r584,0r0,177r-389,0r0,436r357,0r0,172r-357,0r0,492r389,0"},"F":{"d":"728,-1462r0,177r-400,0r0,436r369,0r0,177r-369,0r0,672r-197,0r0,-1462r597,0"},"G":{"d":"519,-1302v-267,0,-241,333,-241,633v0,211,2,334,75,434v34,46,89,67,160,67v81,0,138,-32,172,-95v37,-68,55,-185,55,-350r-207,0r0,-172r392,0v0,229,-13,402,-45,515v-57,203,-135,288,-380,288v-142,0,-245,-51,-310,-152v-73,-115,-110,-313,-110,-594v0,-274,33,-468,100,-582v67,-114,178,-172,333,-172v239,0,330,112,395,309r-176,84v-31,-142,-102,-213,-213,-213","w":1005},"H":{"d":"877,-1462r0,1462r-196,0r0,-722r-353,0r0,722r-197,0r0,-1462r197,0r0,558r353,0r0,-558r196,0","w":1009},"I":{"d":"328,-1462r0,1462r-197,0r0,-1462r197,0","w":461},"J":{"d":"162,-168v100,0,136,-91,135,-205r0,-1089r195,0r0,1085v-2,270,-100,403,-312,398v-84,-2,-130,-28,-196,-64r0,-201v68,51,127,76,178,76","w":621},"K":{"d":"521,-765r348,765r-213,0r-340,-748r0,748r-195,0r0,-1462r195,0r0,693r344,-693r209,0","w":894},"L":{"d":"748,-185r0,185r-617,0r0,-1462r197,0r0,1277r420,0","w":773},"M":{"d":"949,-1462r127,1462r-182,0r-62,-1025r-190,1025r-138,0r-192,-1025r-60,1025r-180,0r125,-1462r180,0r195,1013r205,-1013r172,0","w":1146},"N":{"d":"886,-1462r0,1462r-185,0r-385,-1021r0,1021r-187,0r0,-1462r183,0r385,1013r0,-1013r189,0","w":1013},"O":{"d":"916,-728v0,259,-28,444,-85,557v-65,128,-178,192,-339,192v-139,0,-241,-60,-306,-179v-65,-119,-98,-307,-98,-562v1,-309,23,-524,153,-666v61,-66,150,-96,261,-96v135,0,235,51,300,153v76,119,114,320,114,601xm289,-791v0,229,17,390,49,483v32,93,88,140,168,140v71,0,118,-33,154,-91v87,-141,74,-806,0,-936v-39,-68,-89,-107,-166,-107v-137,0,-205,170,-205,511","w":1005},"P":{"d":"841,-1052v0,317,-171,408,-513,408r0,644r-197,0r0,-1462r242,0v306,1,468,116,468,410xm328,-820v119,0,195,-9,229,-26v58,-29,87,-99,87,-208v0,-214,-86,-228,-316,-235r0,469","w":898},"Q":{"d":"823,-1308v112,204,153,936,-11,1173r117,164r-117,84r-103,-150v-72,35,-120,51,-215,51v-139,0,-241,-54,-306,-162v-68,-114,-102,-298,-102,-551v0,-312,14,-509,131,-662v63,-83,161,-121,285,-121v152,0,258,59,321,174xm689,-308v60,-200,43,-685,-6,-837v-33,-102,-94,-153,-181,-153v-77,0,-129,43,-168,124v-77,160,-54,773,7,896v48,96,146,128,251,85r-127,-176r115,-84","w":1005},"R":{"d":"810,-1091v0,231,-84,328,-277,369r349,722r-214,0r-336,-713r-4,0r0,713r-197,0r0,-1462r238,0v299,2,441,88,441,371xm328,-824v218,-1,281,-34,281,-236v0,-220,-44,-223,-281,-229r0,465","w":894},"S":{"d":"422,-1478v112,2,158,26,255,66r0,194v-84,-47,-123,-75,-228,-78v-110,-3,-200,88,-195,199v9,178,186,265,297,367v117,107,174,167,179,353v6,220,-158,403,-373,398v-111,-2,-169,-31,-261,-76r0,-201v84,47,152,83,257,86v147,4,236,-179,150,-310v-24,-37,-56,-85,-109,-129v-134,-110,-210,-163,-282,-279v-39,-62,-55,-130,-55,-201v0,-218,151,-392,365,-389"},"T":{"d":"761,-1462r0,185r-273,0r0,1277r-195,0r0,-1277r-272,0r0,-185r740,0","w":781},"U":{"d":"500,21v-273,3,-379,-139,-379,-408r0,-1075r191,0r0,1089v0,137,65,205,194,205v127,0,191,-68,191,-205r0,-1089r193,0r0,1075v0,286,-110,405,-390,408","w":1009},"V":{"d":"629,-1462r199,0r-324,1462r-164,0r-319,-1462r198,0r205,993","w":849},"W":{"d":"1009,-1462r196,0r-244,1462r-159,0r-181,-1037r-184,1037r-160,0r-244,-1462r190,0r146,1001r168,-1001r164,0r172,1001","w":1238},"X":{"d":"492,-744r269,744r-205,0r-164,-508r-164,508r-203,0r268,-744r-256,-718r195,0r160,480r162,-480r194,0","w":785},"Y":{"d":"568,-1462r205,0r-281,841r0,621r-199,0r0,-621r-277,-841r203,0r112,427v26,95,46,166,61,215"},"Z":{"d":"88,-1462r673,0r-468,1277r429,0r0,185r-701,0r471,-1289r-404,0r0,-173","w":785},"[":{"d":"517,219r0,162r-378,0r0,-1943r378,0r0,160r-197,0r0,1621r197,0","w":560},"\\":{"d":"144,-1482r420,1671r-144,0r-420,-1671r144,0","w":568},"]":{"d":"47,219r199,0r0,-1621r-199,0r0,-160r379,0r0,1943r-379,0r0,-162","w":560},"^":{"d":"1105,-1462r521,562r-160,0r-441,-441r-445,441r-160,0r525,-562r160,0","w":2050},"_":{"d":"1025,365r0,115r-1025,0r0,-115r1025,0","w":1025},"`":{"d":"469,-1462r164,345r-104,0r-240,-345r180,0","w":1025},"a":{"d":"330,-1000v98,0,138,44,191,110r0,-92r180,0r0,982r-180,0r0,-96v-49,63,-94,114,-185,114v-84,0,-145,-28,-184,-85v-53,-79,-80,-223,-80,-433v0,-333,86,-500,258,-500xm282,-752v-39,93,-33,430,0,523v37,105,169,105,211,5v37,-88,41,-446,-3,-530v-27,-51,-62,-80,-113,-80v-43,0,-72,28,-95,82","w":802},"b":{"d":"480,18v-101,3,-144,-47,-195,-114r0,96r-180,0r0,-1554r180,0r0,668v43,-61,104,-114,193,-114v125,0,160,56,204,157v49,113,55,434,34,590v-22,156,-81,267,-236,271xm308,-748v-39,91,-35,438,0,524v40,96,166,99,208,8v50,-107,32,-482,-12,-551v-25,-40,-55,-63,-102,-63v-43,0,-71,28,-94,82","w":802},"c":{"d":"387,-156v50,0,76,-17,109,-45r0,185v-134,64,-282,47,-361,-79v-93,-148,-101,-630,-7,-782v82,-134,211,-156,368,-84r0,172v-40,-30,-75,-45,-104,-45v-101,0,-152,117,-152,352v0,217,49,326,147,326","w":525},"d":{"d":"326,-998v101,0,142,44,195,112r0,-668r180,0r0,1554r-180,0r0,-96v-43,57,-111,114,-193,114v-80,0,-138,-42,-188,-118v-102,-154,-70,-638,-12,-768v38,-86,103,-130,198,-130xm292,-773v-36,58,-58,452,-7,557v43,89,165,88,207,0v47,-98,36,-429,-2,-523v-23,-58,-49,-89,-86,-89v-56,0,-90,20,-112,55","w":802},"e":{"d":"668,-328v1,216,-88,349,-289,349v-104,0,-182,-42,-238,-125v-119,-176,-108,-656,26,-807v51,-58,117,-89,200,-89v127,0,212,43,256,128v39,75,58,213,58,415r-449,0v0,109,12,191,36,245v24,54,62,81,115,81v91,0,121,-93,121,-197r164,0xm232,-601r272,0v0,-93,-12,-157,-28,-196v-29,-69,-151,-72,-195,-19v-32,38,-49,110,-49,215","w":740},"f":{"d":"125,-1324v-1,-148,71,-244,213,-244v35,0,73,6,115,18r0,164r-70,-10v-50,0,-75,31,-75,94r0,320r137,0r0,141r-137,0r0,841r-183,0r0,-841r-96,0r0,-141r96,0r0,-342","w":449},"g":{"d":"334,-1000v96,0,134,44,187,110r0,-92r180,0r0,1003v-4,266,-76,371,-338,371v-200,0,-283,-105,-283,-312r172,0v10,108,48,162,115,162v46,0,79,-14,100,-43v36,-50,54,-150,54,-299v-47,69,-97,112,-197,112v-134,0,-177,-61,-213,-173v-59,-183,-71,-630,49,-763v44,-49,100,-76,174,-76xm283,-744v-30,82,-46,426,2,525v43,89,173,87,211,-5v32,-76,41,-422,2,-515v-26,-63,-63,-97,-119,-97v-43,0,-73,31,-96,92","w":802},"h":{"d":"400,-828v-70,0,-107,69,-107,147r0,681r-180,0r0,-1554r180,0r0,668v53,-71,122,-106,207,-106v142,0,213,81,213,244r0,748r-180,0r0,-660v-2,-119,-21,-168,-133,-168","w":816},"i":{"d":"92,-1273v0,-68,46,-113,115,-113v66,0,113,45,113,111v0,66,-50,113,-115,113v-67,0,-113,-44,-113,-111xm297,-982r0,982r-180,0r0,-982r180,0","w":408},"j":{"d":"92,-1273v0,-68,46,-113,115,-113v66,0,113,45,113,111v0,66,-50,113,-115,113v-67,0,-113,-44,-113,-111xm297,-982r0,1374r-180,0r0,-1374r180,0","w":408},"k":{"d":"480,-533r285,533r-197,0r-269,-517r0,517r-178,0r0,-1554r178,0r0,1009r261,-437r192,0","w":785},"l":{"d":"297,-1554r0,1554r-180,0r0,-1554r180,0","w":408},"m":{"d":"494,-992v102,0,149,48,199,119v59,-72,106,-119,215,-119v154,0,213,83,213,244r0,748r-180,0r0,-660v-1,-119,-22,-168,-131,-168v-69,0,-105,70,-105,147r0,681r-180,0r0,-660v-2,-106,-16,-166,-109,-168v-83,-2,-124,61,-123,147r0,681r-180,0r0,-982r180,0r0,96v52,-66,100,-106,201,-106","w":1230},"n":{"d":"400,-828v-70,0,-107,69,-107,147r0,681r-180,0r0,-982r180,0r0,96v53,-71,121,-106,205,-106v143,0,215,81,215,244r0,748r-180,0r0,-660v-2,-119,-21,-168,-133,-168","w":816},"o":{"d":"722,-490v1,292,-85,508,-343,508v-101,0,-176,-48,-235,-136v-109,-162,-112,-588,0,-748v60,-86,138,-132,241,-132v109,0,190,36,244,107v62,82,93,216,93,401xm279,-230v46,109,180,107,227,4v38,-83,38,-427,8,-517v-34,-102,-181,-132,-232,-32v-44,85,-44,447,-3,545","w":785},"p":{"d":"478,12v-102,0,-146,-42,-193,-112r0,492r-180,0r0,-1374r180,0r0,92v42,-62,108,-115,197,-115v124,0,156,60,200,159v46,104,54,402,39,555v-17,172,-80,303,-243,303xm517,-219v43,-88,32,-445,7,-517v-22,-65,-61,-98,-120,-98v-85,0,-127,114,-127,342v0,135,14,227,37,278v37,84,163,79,203,-5","w":802},"q":{"d":"326,-998v101,0,142,44,195,112r0,-96r180,0r0,1374r-180,0r0,-488v-57,76,-119,114,-185,114v-99,0,-166,-45,-210,-132v-71,-139,-74,-627,7,-763v46,-78,106,-121,193,-121xm291,-782v-47,66,-52,482,-5,562v33,95,178,85,212,-5v31,-83,39,-431,-4,-521v-26,-53,-55,-82,-98,-82v-53,0,-85,17,-105,46","w":802},"r":{"d":"529,-810v-168,2,-236,54,-236,218r0,592r-176,0r0,-982r172,0r0,141v69,-105,97,-139,240,-159r0,190","w":556},"s":{"d":"342,-845v-95,0,-148,106,-91,185v43,59,185,168,223,260v21,51,36,99,36,150v3,156,-122,269,-280,266v-73,-1,-114,-13,-175,-37r0,-188v60,45,113,68,158,68v68,0,127,-52,125,-119v-2,-89,-98,-158,-152,-210v-65,-63,-127,-157,-129,-262v-3,-148,117,-270,265,-270v44,0,98,14,162,41r0,184v-43,-45,-91,-68,-142,-68","w":560},"t":{"d":"441,-982r0,133r-138,0r0,849r-178,0r0,-849r-100,0r0,-133r100,0r0,-266r178,0r0,266r138,0","w":449},"u":{"d":"410,-141v73,0,119,-63,119,-140r0,-701r180,0r0,693v-1,210,-91,310,-299,310v-211,0,-300,-97,-301,-310r0,-693r180,0r0,701v-2,75,49,140,121,140","w":816},"v":{"d":"469,-982r183,0r-244,982r-144,0r-243,-982r184,0r131,738v9,-64,19,-126,30,-188","w":672},"w":{"d":"797,-982r181,0r-234,982r-123,0r-117,-693v-2,36,-16,111,-41,263r-76,430r-123,0r-227,-982r176,0r91,530v17,103,26,164,28,183r117,-713r115,0r96,574v11,71,17,118,17,139","w":1009},"x":{"d":"433,-521r223,521r-191,0r-133,-344r-127,344r-189,0r224,-521r-193,-461r189,0r96,281r105,-281r184,0","w":668},"y":{"d":"484,-982r176,0r-391,1374r-189,0r152,-480r-203,-894r184,0r115,646","w":672},"z":{"d":"47,-982r601,0r-363,822r336,0r0,160r-592,0r363,-824r-345,0r0,-158","w":677},"{":{"d":"609,43v6,216,35,240,252,246r0,123v-157,0,-260,-18,-308,-55v-61,-47,-92,-151,-92,-310r0,-244v-5,-224,-60,-267,-289,-272r0,-123v224,-4,289,-56,289,-277r0,-244v8,-324,67,-356,400,-365r0,125v-225,4,-245,24,-252,244v-4,132,10,357,-22,437v-26,61,-86,108,-179,139v164,62,201,117,201,336r0,240","w":1025},"|":{"d":"576,-1566r0,2046r-127,0r0,-2046r127,0","w":1025},"}":{"d":"861,-469v-230,5,-289,46,-289,272r0,244v-13,316,-67,362,-400,365r0,-123v217,-6,252,-30,252,-246r0,-240v5,-219,37,-273,201,-336v-93,-31,-153,-78,-179,-139v-33,-78,-18,-307,-22,-437v-7,-220,-25,-240,-252,-244r0,-125v335,9,391,39,400,365r0,244v4,219,66,273,289,277r0,123","w":1025},"~":{"d":"1277,-1097v161,0,216,-115,217,-293r132,0v2,248,-105,418,-339,418v-126,0,-244,-84,-309,-166v-69,-87,-82,-125,-211,-125v-166,0,-207,108,-211,289r-136,0v-1,-260,105,-416,349,-416v115,0,213,57,303,166v72,86,86,127,205,127","w":2050},"\u201a":{"d":"201,-244r156,47r-189,513r-100,-31","w":453},"\u0192":{"d":"336,-882r68,-407v14,-164,181,-227,357,-173r-33,156v-95,-23,-141,5,-156,96r-55,328r184,0r-24,130r-181,0r-160,941v-22,142,-56,205,-199,205v-33,0,-76,-8,-129,-25r29,-156v71,19,114,-5,127,-82r148,-883r-168,0r24,-130r168,0"},"\u201e":{"d":"449,-244r156,47r-189,513r-100,-31xm201,-244r156,47r-189,513r-100,-31","w":672},"\u2026":{"d":"1593,-92v0,-71,43,-111,115,-111v70,0,114,42,114,111v0,67,-46,110,-114,110v-69,0,-116,-43,-115,-110xm908,-92v0,-71,43,-111,115,-111v69,0,115,43,115,111v0,67,-47,110,-115,110v-69,0,-116,-43,-115,-110xm228,-92v0,-71,43,-111,114,-111v69,0,115,43,115,111v0,67,-47,110,-115,110v-68,0,-114,-43,-114,-110","w":2050},"\u2020":{"d":"752,-996r0,172r-268,0r0,1228r-187,0r0,-1228r-268,0r0,-172r268,0r0,-466r187,0r0,466r268,0","w":781},"\u2021":{"d":"752,-205r0,164r-276,0r0,445r-173,0r0,-445r-274,0r0,-164r274,0r0,-656r-274,0r0,-160r274,0r0,-441r173,0r0,441r276,0r0,160r-276,0r0,656r276,0","w":781},"\u02c6":{"d":"601,-1462r147,349r-104,0r-131,-211r-132,211r-104,0r147,-349r177,0","w":1025},"\u2030":{"d":"320,-1476v249,3,272,159,272,430v0,156,-15,263,-46,322v-36,69,-106,103,-210,103v-93,0,-156,-35,-200,-95v-75,-104,-76,-557,-2,-664v43,-61,101,-96,186,-96xm1054,-1482r123,0r-660,1498r-130,0xm1222,-834v247,0,268,155,268,430v0,152,-15,257,-45,315v-37,70,-108,105,-213,105v-96,0,-159,-33,-201,-92v-71,-98,-71,-552,-6,-657v40,-65,102,-101,197,-101xm223,-1050v0,142,1,296,121,298v33,0,56,-23,75,-66v37,-83,24,-375,-1,-450v-27,-81,-119,-97,-159,-36v-26,40,-36,126,-36,254xm1144,-644v-23,61,-24,412,8,470v21,39,49,61,96,61v29,0,51,-23,70,-66v38,-88,27,-375,-2,-447v-20,-49,-47,-75,-86,-75v-45,0,-72,20,-86,57xm1868,-834v247,0,268,155,268,430v0,152,-15,257,-45,315v-37,70,-108,105,-213,105v-96,0,-159,-33,-201,-92v-71,-98,-71,-552,-6,-657v40,-65,102,-101,197,-101xm1790,-644v-23,61,-24,412,8,470v21,39,49,61,96,61v29,0,51,-23,70,-66v38,-88,27,-375,-2,-447v-20,-49,-47,-75,-86,-75v-45,0,-72,20,-86,57","w":2210},"\u0160":{"d":"533,-1941r107,0r-150,348r-176,0r-148,-348r105,0r131,211xm422,-1478v107,2,174,27,255,66r0,194v-69,-45,-127,-74,-228,-78v-110,-5,-195,88,-195,199v0,170,199,265,297,367v39,40,84,76,115,125v42,67,64,143,64,228v0,220,-158,405,-373,398v-104,-3,-178,-33,-261,-76r0,-201v73,43,156,84,257,86v105,2,184,-91,184,-199v0,-90,-108,-215,-193,-281v-130,-101,-281,-222,-287,-439v-5,-218,151,-393,365,-389"},"\u2039":{"d":"209,-488r199,371r-111,62r-238,-433r238,-437r111,60","w":472},"\u0152":{"d":"482,-1482v133,0,170,59,244,149r0,-133r539,0r0,177r-388,0r0,440r357,0r0,172r-357,0r0,492r388,0r0,185r-539,0r0,-125v-71,87,-120,139,-257,139v-133,0,-225,-64,-291,-182v-117,-209,-118,-952,7,-1148v68,-107,162,-166,297,-166xm333,-1166v-60,152,-61,721,1,866v36,84,85,128,158,128v60,0,106,-46,143,-135v66,-158,81,-531,53,-737v-20,-149,-66,-258,-210,-258v-65,0,-109,46,-145,136","w":1341},"\u2018":{"d":"252,-1554r105,33r-138,533r-151,-49","w":420},"\u2019":{"d":"201,-1554r156,49r-189,513r-100,-29","w":420},"\u201c":{"d":"500,-1554r105,33r-136,533r-153,-49xm252,-1554r105,33r-138,533r-151,-49","w":672},"\u201d":{"d":"449,-1554r156,49r-189,513r-100,-29xm201,-1554r156,49r-189,513r-100,-29","w":672},"\u2022":{"d":"84,-728v0,-68,47,-115,115,-115v65,0,113,49,113,115v0,64,-49,111,-113,111v-67,0,-115,-44,-115,-111","w":396},"\u2013":{"d":"1025,-554r0,121r-1025,0r0,-121r1025,0","w":1025},"\u2014":{"d":"2050,-554r0,121r-2050,0r0,-121r2050,0","w":2050},"\u02dc":{"d":"672,-1398r80,0v-16,79,-37,136,-60,171v-48,72,-122,54,-204,24v-77,-28,-108,-23,-135,53r-80,0v18,-87,41,-144,65,-176v46,-62,142,-40,205,-13v66,28,112,19,129,-59","w":1025},"\u2122":{"d":"728,-1458r0,74r-109,0r0,511r-78,0r0,-511r-108,0r0,-74r295,0xm1095,-1456r49,585r-72,0r-24,-410r-76,410r-56,0r-78,-410r-24,410r-72,0r51,-585r72,0r78,404r82,-404r70,0","w":1706},"\u0161":{"d":"416,-1462r105,0r-148,349r-176,0r-150,-349r107,0r131,211xm342,-845v-96,0,-147,104,-96,189v27,45,89,87,127,123v74,66,134,161,137,283v3,156,-122,269,-280,266v-73,-1,-114,-13,-175,-37r0,-188v60,45,113,68,158,68v68,0,125,-52,125,-119v0,-70,-87,-158,-143,-205v-69,-57,-136,-153,-138,-267v-3,-148,117,-270,265,-270v44,0,98,14,162,41r0,184v-43,-45,-91,-68,-142,-68","w":560},"\u203a":{"d":"176,-925r232,437r-232,433r-117,-62r205,-371r-205,-377","w":472},"\u0153":{"d":"396,-998v110,0,158,45,217,116v53,-82,131,-123,232,-123v109,0,186,39,232,117v49,83,73,226,73,431r-449,0v0,84,5,146,15,187v23,93,69,139,139,139v78,0,122,-101,119,-197r168,0v1,222,-95,346,-306,346v-116,0,-168,-45,-219,-123v-61,77,-106,123,-223,123v-102,0,-180,-35,-234,-104v-64,-82,-96,-215,-96,-398v0,-288,66,-514,332,-514xm701,-601r277,0v0,-93,-12,-159,-31,-198v-37,-77,-173,-76,-212,0v-20,40,-34,105,-34,198xm275,-787v-56,91,-49,479,2,575v49,93,168,95,214,8v53,-62,49,-414,25,-507v-23,-89,-70,-134,-143,-134v-45,0,-75,21,-98,58","w":1205},"\u0178":{"d":"435,-1697v0,-64,44,-105,108,-105v62,0,107,42,107,103v0,64,-41,102,-105,102v-61,0,-110,-41,-110,-100xm129,-1697v0,-64,44,-105,109,-105v63,0,108,43,108,105v0,62,-42,100,-106,100v-60,0,-111,-42,-111,-100xm568,-1462r205,0r-281,841r0,621r-199,0r0,-621r-277,-841r203,0r139,462v16,64,23,116,34,180r47,-219"},"\u00a0":{"w":1025},"\u00a1":{"d":"369,0r-180,0r0,-1105r180,0r0,1105xm392,-1351v0,62,-50,109,-113,109v-67,0,-115,-44,-115,-111v0,-66,47,-111,113,-111v65,0,115,47,115,113","w":556},"\u00a2":{"d":"484,-1238v50,10,66,17,108,41r0,168v-81,-68,-172,-54,-218,45v-45,96,-48,415,-4,512v43,96,140,98,222,35r0,185v-48,19,-65,30,-108,33r0,190r-92,0r0,-190v-195,-55,-240,-225,-240,-499v0,-296,40,-448,240,-520r0,-191r92,0r0,191"},"\u00a3":{"d":"529,-156v39,-4,54,-34,68,-72r159,52v-48,117,-87,186,-213,197v-74,6,-180,-95,-272,-95v-31,0,-59,22,-82,66r-156,-51v39,-123,86,-206,231,-181v40,-92,37,-214,0,-314r-172,0r0,-88r136,0v-78,-202,-124,-271,-130,-475v-7,-216,140,-365,353,-365v195,0,307,111,305,309r-155,72v-1,-136,-30,-211,-152,-211v-111,0,-166,82,-162,199v7,202,51,263,129,471r189,0r0,88r-164,0v28,141,24,236,-33,349v46,23,76,43,121,49"},"\u00a4":{"d":"1037,-888v1,120,-32,179,-84,259r203,205r-72,71r-202,-203v-76,52,-142,87,-259,87v-124,0,-171,-28,-258,-87r-209,203r-68,-71r205,-205v-50,-74,-84,-147,-84,-257v0,-120,30,-174,84,-256r-205,-203r68,-76r209,207v88,-61,136,-88,258,-88v112,0,182,35,259,88r202,-207r72,76r-203,203v52,72,82,143,84,254xm310,-884v0,163,149,312,313,312v170,0,314,-148,314,-318v0,-164,-149,-311,-312,-311v-165,0,-315,151,-315,317","w":1240},"\u00a5":{"d":"824,-728r0,76r-307,0r-13,31r0,621r-176,0r0,-621r-12,-31r-304,0r0,-76r281,0r-57,-172r-224,0r0,-78r201,0r-162,-484r172,0r193,714r141,-520v27,-96,45,-161,56,-194r172,0r-160,484r199,0r0,78r-223,0r-60,172r283,0","w":832},"\u00a6":{"d":"576,-1433r0,761r-127,0r0,-761r127,0xm576,-408r0,757r-127,0r0,-757r127,0","w":1025},"\u00a7":{"d":"513,-1113v-2,-118,-13,-209,-105,-209v-77,0,-115,41,-115,123v0,115,38,149,118,203v150,101,314,178,307,430v-5,173,-64,259,-185,322v93,87,144,131,148,287v5,187,-115,330,-296,328v-210,-3,-289,-142,-289,-367r173,0v0,113,23,202,112,207v123,6,159,-182,89,-274v-27,-36,-73,-81,-144,-128v-156,-103,-258,-164,-258,-373v0,-172,70,-268,184,-344v-84,-75,-132,-131,-135,-267v-4,-171,113,-310,279,-307v209,4,289,143,289,369r-172,0xm394,-781v-184,0,-176,414,4,414v90,0,131,-103,131,-207v0,-107,-42,-207,-135,-207","w":781},"\u00a8":{"d":"556,-1273v0,-64,44,-105,108,-105v60,0,109,43,109,103v0,64,-43,102,-107,102v-61,0,-110,-41,-110,-100xm252,-1273v0,-63,46,-105,109,-105v61,0,108,42,108,103v0,64,-43,102,-108,102v-60,0,-109,-41,-109,-100","w":1025},"\u00a9":{"d":"119,-722v0,-388,344,-740,730,-740v399,0,740,338,740,736v0,393,-341,734,-734,734v-384,0,-736,-347,-736,-730xm205,-726v0,336,308,646,644,646v348,0,652,-299,652,-646v0,-346,-302,-648,-648,-648v-342,0,-648,307,-648,648xm990,-1043v-63,-39,-165,-37,-207,23v-78,72,-82,423,-29,535v46,98,134,111,236,59r0,112v-42,20,-74,30,-129,31v-89,0,-152,-40,-197,-115v-82,-136,-81,-532,3,-666v68,-108,191,-149,323,-94r0,115","w":1706},"\u00aa":{"d":"248,-1472v67,0,98,32,133,78r0,-66r127,0r0,689r-127,0r0,-67v-38,47,-63,79,-129,79v-59,0,-102,-20,-129,-59v-37,-54,-55,-155,-55,-303v0,-234,60,-351,180,-351xm214,-1297v-24,66,-24,303,-1,367v25,71,120,72,149,2v25,-62,27,-312,-2,-372v-34,-68,-117,-76,-146,3","w":601},"\u00ab":{"d":"480,-488r201,371r-113,62r-236,-433r236,-437r113,60xm185,-488r202,371r-110,62r-236,-433r236,-437r110,60","w":722},"\u00ac":{"d":"1453,-861r0,504r-116,0r0,-387r-1085,0r0,-117r1201,0","w":1706},"\u00ad":{"d":"484,-572r0,164r-408,0r0,-164r408,0","w":560},"\u00ae":{"d":"119,-718v0,-392,340,-744,730,-744v400,0,740,338,740,738v0,394,-344,732,-738,732v-382,0,-732,-345,-732,-726xm855,-80v292,-11,461,-153,570,-346v50,-89,73,-177,76,-302v8,-345,-304,-646,-648,-646v-349,0,-646,301,-646,650v0,337,311,656,648,644xm1068,-961v0,138,-52,195,-168,221r211,432r-129,0r-201,-428r-4,0r0,428r-117,0r0,-877r144,0v178,1,264,54,264,224xm777,-802v131,-1,168,-19,168,-141v0,-132,-26,-134,-168,-137r0,278","w":1706},"\u00af":{"d":"1025,-1566r0,121r-1025,0r0,-121r1025,0","w":1025},"\u00b0":{"d":"127,-1214v0,-151,127,-278,279,-278v150,0,277,126,277,276v0,152,-125,279,-277,279v-152,0,-279,-125,-279,-277xm238,-1216v0,94,76,170,170,170v90,0,166,-79,166,-170v0,-90,-77,-168,-168,-168v-92,0,-168,76,-168,168","w":820},"\u00b1":{"d":"1453,-836r0,114r-541,0r0,345r-115,0r0,-345r-545,0r0,-114r545,0r0,-345r115,0r0,345r541,0xm1453,-156r0,115r-1201,0r0,-115r1201,0","w":1706},"\u00b2":{"d":"258,-1363v-92,0,-91,105,-94,194r-121,0v-11,-192,56,-295,217,-299v134,-3,216,86,216,222v0,111,-50,193,-95,268r-172,285r248,0r0,113r-436,0r256,-466v39,-73,67,-124,67,-215v0,-68,-29,-102,-86,-102","w":521},"\u00b3":{"d":"459,-1238v-1,115,-33,174,-119,201v97,24,129,71,129,203v0,146,-21,185,-103,235v-81,49,-236,40,-288,-25v-31,-39,-49,-100,-49,-186r110,0v0,91,32,136,97,136v73,0,110,-52,110,-156v0,-133,-48,-160,-182,-158r0,-96v131,3,174,-16,170,-154v-3,-95,-31,-138,-102,-127v-78,13,-61,55,-76,143r-113,0v-5,-163,54,-243,203,-246v135,-3,215,92,213,230","w":521},"\u00b4":{"d":"556,-1462r180,0r-240,345r-104,0","w":1025},"\u00b5":{"d":"232,-428v-44,203,74,370,273,306v158,-51,229,-205,272,-399r121,-547r156,0r-146,681v-27,130,-41,198,-41,205v3,54,42,64,107,65r-25,125r-94,10v-101,-2,-129,-51,-146,-147v-56,87,-161,150,-293,150v-127,0,-196,-57,-260,-142r-113,545r-152,0r314,-1492r160,0","w":1130},"\u00b6":{"d":"76,-1136v-3,-208,176,-346,393,-346r480,0r0,80r-125,0r0,1402r-96,0r0,-1402r-179,0r0,1402r-96,0r0,-785v-232,-26,-373,-117,-377,-351","w":1025},"\u00b7":{"d":"221,-623v-86,0,-164,-71,-164,-156v0,-86,71,-164,156,-164v86,0,164,71,164,156v0,88,-68,164,-156,164","w":426},"\u2219":{"d":"221,-623v-86,0,-164,-71,-164,-156v0,-86,71,-164,156,-164v86,0,164,71,164,156v0,88,-68,164,-156,164","w":426},"\u00b8":{"d":"574,275v1,-78,-68,-74,-150,-74r0,-201r84,0r0,92v137,0,204,58,205,191v1,124,-80,196,-207,195v-57,0,-131,-15,-221,-45r0,-121v72,24,122,45,193,47v58,2,95,-28,96,-84","w":1025},"\u00b9":{"d":"332,-1453r0,873r-123,0r0,-769r-117,0r0,-104r240,0","w":521},"\u00ba":{"d":"525,-1113v2,204,-59,354,-240,354v-164,0,-226,-168,-226,-358v0,-195,60,-353,230,-353v189,0,234,142,236,357xm214,-931v31,77,128,73,160,3v26,-58,26,-301,5,-364v-24,-72,-126,-93,-162,-22v-30,59,-30,315,-3,383","w":588},"\u00bb":{"d":"449,-925r232,437r-232,433r-117,-62r205,-371r-205,-377xm152,-925r235,437r-235,433r-111,-62r199,-371r-199,-377","w":722},"\u00bc":{"d":"316,-1458r0,816r-115,0r0,-715r-113,0r0,-101r228,0xm1041,-1482r136,0r-880,1498r-141,0xm1294,-312r0,93r-68,0r0,219r-113,0r0,-219r-252,0r0,-109r260,-488r105,0r0,504r68,0xm949,-312r164,0r0,-326","w":1337},"\u00bd":{"d":"316,-1458r0,816r-115,0r0,-715r-113,0r0,-101r228,0xm1041,-1482r136,0r-880,1498r-141,0xm1101,-728v-101,0,-107,72,-105,174r-114,0v-10,-171,51,-272,202,-272v128,0,210,74,210,201v0,86,-56,196,-93,256r-164,264r236,0r0,105r-416,0r244,-433v37,-66,63,-120,63,-207v0,-59,-21,-88,-63,-88","w":1337},"\u00be":{"d":"209,-1371v-51,13,-57,73,-61,133r-105,0v-7,-153,56,-232,207,-230v65,2,145,42,160,94v21,30,29,83,29,130v0,103,-37,162,-111,176v114,14,125,127,119,254v-7,157,-178,221,-331,164v-63,-24,-90,-109,-87,-203r106,0v-8,31,5,92,25,103v19,11,33,26,66,22v120,11,121,-171,83,-260v-28,-33,-92,-35,-153,-37r0,-88r41,0v102,4,123,-41,123,-142v0,-86,-32,-126,-103,-123xm1041,-1482r136,0r-880,1498r-141,0xm1294,-312r0,95r-68,0r0,217r-113,0r0,-217r-252,0r0,-111r260,-488r105,0r0,504r68,0xm949,-312r164,0r0,-326","w":1337},"\u00bf":{"d":"535,-357v-2,252,-37,371,-260,371v-113,0,-186,-31,-220,-94v-27,-50,-41,-152,-41,-307v0,-160,17,-271,51,-333v28,-51,73,-77,134,-77r0,-308r172,0r0,433v-73,0,-121,14,-143,43v-48,39,-52,346,-20,431v24,63,108,72,138,19v17,-31,25,-90,25,-178r164,0xm404,-1374v0,65,-49,109,-115,109v-67,0,-117,-41,-117,-106v0,-67,50,-115,117,-115v66,0,115,46,115,112","w":560},"\u00c0":{"d":"545,-1462r341,1462r-197,0r-72,-289r-332,0r-70,289r-199,0r345,-1462r184,0xm320,-453r260,0r-127,-631xm408,-1937r164,344r-105,0r-239,-344r180,0","w":900},"\u00c1":{"d":"545,-1462r341,1462r-197,0r-72,-289r-332,0r-70,289r-199,0r345,-1462r184,0xm320,-453r260,0r-127,-631xm496,-1937r181,0r-240,344r-105,0","w":900},"\u00c2":{"d":"541,-1937r148,348r-105,0r-131,-213r-133,213r-105,0r150,-348r176,0xm545,-1462r341,1462r-197,0r-72,-289r-332,0r-70,289r-199,0r345,-1462r184,0xm320,-453r260,0r-127,-631","w":900},"\u00c3":{"d":"545,-1462r341,1462r-197,0r-72,-289r-332,0r-70,289r-199,0r345,-1462r184,0xm320,-453r260,0r-127,-631xm613,-1874r80,0v-17,81,-38,137,-60,172v-62,98,-177,9,-272,9v-31,0,-54,22,-68,67r-80,0v16,-74,17,-96,47,-147v37,-62,75,-80,150,-64v45,10,90,36,135,37v34,0,57,-25,68,-74","w":900},"\u00c4":{"d":"496,-1751v0,-60,48,-104,109,-104v62,0,108,43,108,104v0,63,-43,103,-108,103v-60,0,-109,-43,-109,-103xm193,-1751v0,-58,47,-104,106,-104v65,0,110,41,109,104v0,64,-43,103,-109,103v-60,0,-106,-44,-106,-103xm545,-1462r341,1462r-197,0r-72,-289r-332,0r-70,289r-199,0r345,-1462r184,0xm320,-453r260,0r-127,-631","w":900},"\u00c5":{"d":"228,-1749v0,-126,112,-225,252,-225v99,0,197,121,197,223v0,126,-95,226,-220,226v-126,0,-229,-98,-229,-224xm344,-1751v0,62,48,107,109,107v62,0,107,-45,107,-107v0,-61,-46,-104,-107,-104v-61,0,-109,43,-109,104xm545,-1462r341,1462r-197,0r-72,-289r-332,0r-70,289r-199,0r345,-1462r184,0xm320,-453r260,0r-127,-631","w":900},"\u00c6":{"d":"1177,-189r37,189r-525,0r-60,-289r-344,0r-70,289r-199,0r349,-1462r547,0r41,177r-344,0r92,436r308,0r37,172r-314,0r100,488r345,0xm320,-453r277,0r-132,-689","w":1205},"\u00c7":{"d":"431,-209v92,66,214,37,305,-14r0,190v-66,32,-125,51,-213,51v-296,0,-433,-266,-433,-594v0,-404,23,-757,297,-874v112,-48,235,-41,349,9r0,188v-115,-54,-202,-59,-300,3v-61,39,-117,144,-133,214v-35,155,-28,375,-11,536v12,119,61,236,139,291xm545,275v1,-78,-67,-74,-149,-74r0,-201r84,0r0,92v137,0,204,58,205,191v1,123,-84,197,-209,195v-57,0,-131,-15,-220,-45r0,-121v69,23,124,45,193,47v58,2,95,-28,96,-84","w":781},"\u00c8":{"d":"709,-185r0,185r-584,0r0,-1462r584,0r0,177r-389,0r0,436r357,0r0,172r-357,0r0,492r389,0xm373,-1937r164,344r-104,0r-240,-344r180,0"},"\u00c9":{"d":"709,-185r0,185r-584,0r0,-1462r584,0r0,177r-389,0r0,436r357,0r0,172r-357,0r0,492r389,0xm461,-1937r181,0r-240,344r-105,0"},"\u00ca":{"d":"709,-185r0,185r-584,0r0,-1462r584,0r0,177r-389,0r0,436r357,0r0,172r-357,0r0,492r389,0xm504,-1937r148,348r-105,0r-131,-211r-131,211r-105,0r148,-348r176,0"},"\u00cb":{"d":"461,-1751v0,-61,46,-104,107,-104v63,0,109,42,109,104v0,63,-46,103,-109,103v-62,0,-107,-42,-107,-103xm156,-1751v0,-60,47,-104,108,-104v61,0,109,43,109,104v0,64,-43,103,-109,103v-61,0,-108,-42,-108,-103xm709,-185r0,185r-584,0r0,-1462r584,0r0,177r-389,0r0,436r357,0r0,172r-357,0r0,492r389,0"},"\u00cc":{"d":"328,-1462r0,1462r-197,0r0,-1462r197,0xm189,-1937r164,344r-105,0r-240,-344r181,0","w":461},"\u00cd":{"d":"328,-1462r0,1462r-197,0r0,-1462r197,0xm277,-1937r180,0r-240,344r-104,0","w":461},"\u00ce":{"d":"320,-1937r149,348r-104,0r-133,-213r-132,213r-104,0r148,-348r176,0xm328,-1462r0,1462r-197,0r0,-1462r197,0","w":461},"\u00cf":{"d":"277,-1751v0,-61,46,-104,108,-104v61,0,107,43,107,104v0,64,-42,103,-107,103v-63,0,-108,-41,-108,-103xm-29,-1751v0,-62,46,-104,109,-104v61,0,109,43,109,104v0,61,-46,103,-109,103v-63,0,-109,-40,-109,-103xm328,-1462r0,1462r-197,0r0,-1462r197,0","w":461},"\u00d0":{"d":"139,-1462v197,1,429,-8,554,54v255,127,279,549,240,928v-21,205,-112,384,-278,446v-116,43,-345,32,-516,34r0,-732r-139,0r0,-162r139,0r0,-568xm638,-1214v-58,-64,-178,-69,-302,-63r0,383r185,0r0,162r-185,0r0,543v138,0,250,3,308,-71v102,-130,106,-407,94,-634v-7,-126,-37,-250,-100,-320","w":1021},"\u00d1":{"d":"579,-1805v60,13,81,-19,93,-69r80,0v-16,81,-38,137,-60,172v-45,71,-133,54,-204,23v-61,-26,-117,-22,-135,53r-80,0v14,-75,35,-129,57,-165v46,-73,143,-55,215,-23v11,4,22,7,34,9xm886,-1462r0,1462r-185,0r-385,-1021r0,1021r-187,0r0,-1462r183,0r385,1013r0,-1013r189,0","w":1013},"\u00d2":{"d":"502,-1482v302,0,412,235,410,574r4,180v7,388,-53,749,-424,749v-139,0,-241,-60,-306,-179v-65,-119,-98,-307,-98,-562v0,-317,36,-582,202,-706v53,-39,125,-56,212,-56xm691,-338v38,-116,30,-276,33,-427v3,-167,-19,-356,-72,-451v-33,-59,-87,-86,-158,-86v-137,0,-205,170,-205,511r0,145v0,135,12,236,43,338v29,93,86,140,174,140v115,0,152,-67,185,-170xm461,-1937r164,344r-104,0r-240,-344r180,0","w":1005},"\u00d3":{"d":"549,-1937r179,0r-240,344r-103,0xm502,-1482v302,0,412,235,410,574r4,180v7,388,-53,749,-424,749v-139,0,-241,-60,-306,-179v-65,-119,-98,-307,-98,-562v0,-317,36,-582,202,-706v53,-39,125,-56,212,-56xm691,-338v38,-116,30,-276,33,-427v3,-167,-19,-356,-72,-451v-33,-59,-87,-86,-158,-86v-137,0,-205,170,-205,511r0,145v0,135,12,236,43,338v29,93,86,140,174,140v115,0,152,-67,185,-170","w":1005},"\u00d4":{"d":"502,-1482v302,0,412,235,410,574r4,180v7,388,-53,749,-424,749v-139,0,-241,-60,-306,-179v-65,-119,-98,-307,-98,-562v0,-317,36,-582,202,-706v53,-39,125,-56,212,-56xm691,-338v38,-116,30,-276,33,-427v3,-167,-19,-356,-72,-451v-33,-59,-87,-86,-158,-86v-137,0,-205,170,-205,511r0,145v0,135,12,236,43,338v29,93,86,140,174,140v115,0,152,-67,185,-170xm592,-1937r148,348r-104,0r-132,-211r-131,211r-104,0r147,-348r176,0","w":1005},"\u00d5":{"d":"502,-1482v302,0,412,235,410,574r4,180v7,388,-53,749,-424,749v-139,0,-241,-60,-306,-179v-65,-119,-98,-307,-98,-562v0,-317,36,-582,202,-706v53,-39,125,-56,212,-56xm691,-338v38,-116,30,-276,33,-427v3,-167,-19,-356,-72,-451v-33,-59,-87,-86,-158,-86v-137,0,-205,170,-205,511r0,145v0,135,12,236,43,338v29,93,86,140,174,140v115,0,152,-67,185,-170xm664,-1874r80,0v-17,81,-38,137,-60,172v-44,72,-133,51,-204,23v-63,-25,-116,-24,-136,53r-80,0v18,-76,18,-95,48,-147v36,-62,76,-80,150,-64v43,9,92,36,135,37v33,0,56,-25,67,-74","w":1005},"\u00d6":{"d":"549,-1751v0,-61,46,-104,107,-104v63,0,109,42,109,104v0,64,-44,103,-109,103v-62,0,-107,-42,-107,-103xm244,-1751v0,-60,48,-104,109,-104v62,0,108,43,108,104v0,63,-43,103,-108,103v-60,0,-109,-43,-109,-103xm502,-1482v302,0,412,235,410,574r4,180v7,388,-53,749,-424,749v-139,0,-241,-60,-306,-179v-65,-119,-98,-307,-98,-562v0,-317,36,-582,202,-706v53,-39,125,-56,212,-56xm691,-338v38,-116,30,-276,33,-427v3,-167,-19,-356,-72,-451v-33,-59,-87,-86,-158,-86v-137,0,-205,170,-205,511r0,145v0,135,12,236,43,338v29,93,86,140,174,140v115,0,152,-67,185,-170","w":1005},"\u00d7":{"d":"937,-611r389,392r-80,80r-391,-392r-386,385r-82,-80r386,-385r-390,-391r80,-82r392,391r383,-383r80,82","w":1706},"\u00d8":{"d":"152,-219v-89,-303,-100,-868,34,-1093v67,-114,173,-170,318,-170v59,0,104,7,137,21v45,19,99,61,161,124r75,-137r76,45r-104,181v79,230,97,635,44,892v-46,221,-153,372,-393,372v-153,0,-208,-54,-295,-147r-88,152r-76,-46xm681,-1138v-32,-94,-75,-160,-179,-160v-77,0,-130,43,-166,124v-43,96,-60,360,-42,548v5,53,5,105,5,157xm324,-340v43,107,65,168,189,168v74,0,127,-42,161,-126v56,-136,62,-488,35,-711","w":1005},"\u00d9":{"d":"890,-1462r0,1075v12,287,-128,408,-390,408v-189,0,-319,-73,-360,-232v-12,-48,-19,-106,-19,-176r0,-1075r191,0r0,1089v0,137,65,205,194,205v127,0,191,-68,191,-205r0,-1089r193,0xm461,-1937r164,344r-104,0r-240,-344r180,0","w":1009},"\u00da":{"d":"549,-1937r179,0r-240,344r-103,0xm890,-1462r0,1075v12,287,-128,408,-390,408v-189,0,-319,-73,-360,-232v-12,-48,-19,-106,-19,-176r0,-1075r191,0r0,1089v0,137,65,205,194,205v127,0,191,-68,191,-205r0,-1089r193,0","w":1009},"\u00db":{"d":"890,-1462r0,1075v12,287,-128,408,-390,408v-189,0,-319,-73,-360,-232v-12,-48,-19,-106,-19,-176r0,-1075r191,0r0,1089v0,137,65,205,194,205v127,0,191,-68,191,-205r0,-1089r193,0xm592,-1937r148,348r-104,0r-132,-211r-131,211r-104,0r147,-348r176,0","w":1009},"\u00dc":{"d":"549,-1751v0,-61,46,-104,107,-104v63,0,109,42,109,104v0,64,-44,103,-109,103v-62,0,-107,-42,-107,-103xm244,-1751v0,-60,48,-104,109,-104v62,0,108,43,108,104v0,63,-43,103,-108,103v-60,0,-109,-43,-109,-103xm890,-1462r0,1075v12,287,-128,408,-390,408v-189,0,-319,-73,-360,-232v-12,-48,-19,-106,-19,-176r0,-1075r191,0r0,1089v0,137,65,205,194,205v127,0,191,-68,191,-205r0,-1089r193,0","w":1009},"\u00dd":{"d":"568,-1462r205,0r-281,841r0,621r-199,0r0,-621r-277,-841r203,0r139,462v16,64,23,116,34,180r47,-219xm441,-1937r180,0r-240,344r-104,0"},"\u00de":{"d":"328,-1164v317,-35,522,112,517,414v-5,224,-130,368,-343,388v-53,5,-109,9,-174,9r0,353r-197,0r0,-1462r197,0r0,298xm328,-529v102,0,172,-5,209,-18v72,-24,107,-96,107,-214v0,-146,-49,-219,-189,-229v-35,-2,-77,-6,-127,-6r0,467","w":898},"\u00df":{"d":"521,-925v170,47,188,133,188,363v0,181,-9,313,-35,393v-49,148,-88,178,-287,177r0,-160v137,-3,138,-116,138,-246v0,-201,-9,-325,-27,-372v-18,-47,-62,-71,-133,-71r0,-147v60,0,97,-13,111,-39v14,-26,20,-93,20,-201v0,-100,-16,-172,-100,-172v-77,0,-112,59,-111,143r0,1257r-176,0r0,-1261v-1,-196,96,-299,287,-299v224,0,272,123,272,365v0,169,-29,220,-147,270","w":781},"\u00e0":{"d":"392,-1462r164,345r-103,0r-240,-345r179,0xm330,-1000v98,0,138,44,191,110r0,-92r180,0r0,982r-180,0r0,-96v-50,74,-107,128,-224,112v-186,-25,-208,-232,-225,-436r0,-80v0,-333,86,-500,258,-500xm252,-521r0,93v0,112,7,213,67,261v53,43,143,16,173,-47v31,-65,33,-227,33,-348v0,-181,-49,-272,-148,-272v-83,0,-125,104,-125,313","w":802},"\u00e1":{"d":"330,-1000v98,0,138,44,191,110r0,-92r180,0r0,982r-180,0r0,-96v-50,74,-107,128,-224,112v-186,-25,-208,-232,-225,-436r0,-80v0,-333,86,-500,258,-500xm252,-521r0,93v0,112,7,213,67,261v53,43,143,16,173,-47v31,-65,33,-227,33,-348v0,-181,-49,-272,-148,-272v-83,0,-125,104,-125,313xm480,-1462r180,0r-240,345r-104,0","w":802},"\u00e2":{"d":"330,-1000v98,0,138,44,191,110r0,-92r180,0r0,982r-180,0r0,-96v-50,74,-107,128,-224,112v-186,-25,-208,-232,-225,-436r0,-80v0,-333,86,-500,258,-500xm252,-521r0,93v0,112,7,213,67,261v53,43,143,16,173,-47v31,-65,33,-227,33,-348v0,-181,-49,-272,-148,-272v-83,0,-125,104,-125,313xm525,-1462r147,349r-104,0r-131,-211r-132,211r-104,0r148,-349r176,0","w":802},"\u00e3":{"d":"330,-1000v98,0,138,44,191,110r0,-92r180,0r0,982r-180,0r0,-96v-50,74,-107,128,-224,112v-186,-25,-208,-232,-225,-436r0,-80v0,-333,86,-500,258,-500xm252,-521r0,93v0,112,7,213,67,261v53,43,143,16,173,-47v31,-65,33,-227,33,-348v0,-181,-49,-272,-148,-272v-83,0,-125,104,-125,313xm197,-1150v21,-120,62,-239,195,-212v45,9,93,37,137,38v33,0,55,-25,68,-74r80,0v-17,80,-38,137,-61,172v-48,72,-122,53,-204,23v-77,-28,-108,-23,-135,53r-80,0","w":802},"\u00e4":{"d":"480,-1271v0,-102,137,-141,194,-68v13,17,23,37,23,66v1,60,-45,100,-107,100v-61,0,-110,-38,-110,-98xm176,-1271v0,-64,44,-107,109,-107v62,0,107,43,107,105v0,62,-44,100,-107,100v-61,0,-109,-40,-109,-98xm330,-1000v98,0,138,44,191,110r0,-92r180,0r0,982r-180,0r0,-96v-50,74,-107,128,-224,112v-186,-25,-208,-232,-225,-436r0,-80v0,-333,86,-500,258,-500xm252,-521r0,93v0,112,7,213,67,261v53,43,143,16,173,-47v31,-65,33,-227,33,-348v0,-181,-49,-272,-148,-272v-83,0,-125,104,-125,313","w":802},"\u00e5":{"d":"209,-1283v1,-126,108,-222,252,-222v107,0,193,113,193,224v0,122,-94,215,-217,215v-129,0,-229,-91,-228,-217xm320,-1287v0,64,47,106,113,106v62,0,108,-41,108,-102v0,-66,-43,-107,-110,-107v-65,0,-111,39,-111,103xm330,-1000v98,0,138,44,191,110r0,-92r180,0r0,982r-180,0r0,-96v-50,74,-107,128,-224,112v-186,-25,-208,-232,-225,-436r0,-80v0,-333,86,-500,258,-500xm252,-521r0,93v0,112,7,213,67,261v53,43,143,16,173,-47v31,-65,33,-227,33,-348v0,-181,-49,-272,-148,-272v-83,0,-125,104,-125,313","w":802},"\u00e6":{"d":"334,-1002v109,0,160,49,211,125v60,-81,105,-125,228,-125v99,0,169,30,212,91v58,82,87,233,87,454r-447,0v0,113,11,196,34,248v23,52,61,78,116,78v86,0,125,-94,123,-197r168,0v2,212,-95,349,-293,349v-134,0,-196,-65,-248,-165v-49,98,-97,156,-222,156v-163,0,-252,-145,-252,-322v0,-192,71,-332,246,-332v81,0,111,19,168,58v-4,-169,-17,-263,-160,-263v-75,0,-112,28,-180,62r0,-172v60,-26,135,-45,209,-45xm625,-601r275,0v0,-93,-12,-156,-30,-195v-35,-76,-171,-73,-209,-2v-22,41,-36,106,-36,197xm223,-326v0,100,38,187,126,187v86,0,123,-82,123,-179v0,-93,-43,-192,-123,-192v-81,0,-126,92,-126,184","w":1134},"\u00e7":{"d":"390,281v5,-81,-66,-81,-150,-80r0,-201r84,0r0,92v136,0,204,58,205,189v1,122,-82,200,-205,197v-94,-2,-142,-20,-224,-45r0,-121v82,27,230,89,285,0v2,-10,1,-23,5,-31xm387,-156v50,0,76,-17,109,-45r0,185v-59,22,-93,39,-158,39v-170,0,-282,-186,-276,-376r-5,-141v4,-167,20,-322,97,-418v85,-105,203,-112,342,-49r0,172v-40,-30,-75,-45,-104,-45v-101,0,-152,117,-152,352v0,217,49,326,147,326","w":525},"\u00e8":{"d":"668,-328v2,210,-93,347,-289,349v-104,0,-181,-43,-238,-125v-77,-109,-94,-344,-73,-540v23,-224,124,-387,369,-352v108,15,180,84,210,192v29,104,36,207,34,347r-449,0v-5,157,5,326,151,326v96,0,110,-89,121,-197r164,0xm232,-601r272,0v0,-93,-11,-158,-28,-196v-28,-62,-125,-73,-178,-29v-51,42,-65,129,-66,225xm328,-1462r164,345r-105,0r-239,-345r180,0","w":740},"\u00e9":{"d":"668,-328v2,210,-93,347,-289,349v-104,0,-181,-43,-238,-125v-77,-109,-94,-344,-73,-540v23,-224,124,-387,369,-352v108,15,180,84,210,192v29,104,36,207,34,347r-449,0v-5,157,5,326,151,326v96,0,110,-89,121,-197r164,0xm232,-601r272,0v0,-93,-11,-158,-28,-196v-28,-62,-125,-73,-178,-29v-51,42,-65,129,-66,225xm416,-1462r181,0r-240,345r-105,0","w":740},"\u00ea":{"d":"668,-328v2,210,-93,347,-289,349v-104,0,-181,-43,-238,-125v-77,-109,-94,-344,-73,-540v23,-224,124,-387,369,-352v108,15,180,84,210,192v29,104,36,207,34,347r-449,0v-5,157,5,326,151,326v96,0,110,-89,121,-197r164,0xm232,-601r272,0v0,-93,-11,-158,-28,-196v-28,-62,-125,-73,-178,-29v-51,42,-65,129,-66,225xm459,-1462r148,349r-105,0r-131,-211r-131,211r-105,0r148,-349r176,0","w":740},"\u00eb":{"d":"416,-1271v0,-63,46,-107,109,-107v63,0,108,43,108,107v0,61,-45,98,-108,98v-61,0,-109,-40,-109,-98xm221,-1173v-65,-1,-106,-40,-108,-98v-2,-61,45,-107,106,-107v64,0,109,42,109,107v0,60,-45,99,-107,98xm668,-328v2,210,-93,347,-289,349v-104,0,-181,-43,-238,-125v-77,-109,-94,-344,-73,-540v23,-224,124,-387,369,-352v108,15,180,84,210,192v29,104,36,207,34,347r-449,0v-5,157,5,326,151,326v96,0,110,-89,121,-197r164,0xm232,-601r272,0v0,-93,-11,-158,-28,-196v-28,-62,-125,-73,-178,-29v-51,42,-65,129,-66,225","w":740},"\u00ec":{"d":"297,-982r0,982r-180,0r0,-982r180,0xm160,-1462r164,345r-105,0r-240,-345r181,0","w":408},"\u00ed":{"d":"297,-982r0,982r-180,0r0,-982r180,0xm248,-1462r180,0r-239,345r-105,0","w":408},"\u00ee":{"d":"293,-1462r148,349r-105,0r-131,-211r-133,211r-105,0r150,-349r176,0xm297,-982r0,982r-180,0r0,-982r180,0","w":408},"\u00ef":{"d":"248,-1273v0,-63,46,-105,109,-105v61,0,108,42,108,103v0,64,-41,102,-106,102v-60,0,-111,-42,-111,-100xm-55,-1273v0,-59,46,-105,106,-105v63,0,110,42,109,103v0,65,-41,102,-107,102v-59,0,-108,-42,-108,-100xm297,-982r0,982r-180,0r0,-982r180,0","w":408},"\u00f0":{"d":"484,-1242r31,55v109,192,138,239,181,462v29,148,47,329,2,479v-36,121,-84,204,-190,246v-107,42,-256,9,-315,-53v-71,-75,-143,-255,-134,-404v11,-187,44,-340,153,-429v82,-67,201,-65,280,-8v-32,-77,-62,-158,-107,-221v-8,-27,-28,-43,-36,-70r-173,76r-51,-86r164,-80v-38,-39,-75,-110,-113,-142r-24,-28r129,-76r147,188r169,-79r55,88xm412,-779v-203,-24,-171,288,-158,484v21,69,46,150,140,147v163,-5,147,-212,147,-375v0,-120,-14,-243,-129,-256","w":783},"\u00f1":{"d":"422,-828v-91,-6,-128,61,-129,147r0,681r-180,0r0,-982r180,0r0,96v53,-71,121,-106,205,-106v143,0,215,81,215,244r0,748r-180,0r0,-660v-2,-110,-14,-162,-111,-168xm568,-1398r80,0v-17,80,-41,136,-62,172v-57,98,-188,8,-270,8v-32,0,-55,23,-68,68r-80,0v13,-73,17,-98,47,-148v36,-60,76,-78,149,-64v45,9,90,37,136,38v34,0,57,-25,68,-74","w":816},"\u00f2":{"d":"644,-122v-60,101,-125,138,-240,138v-118,0,-196,-40,-260,-134v-110,-161,-108,-585,0,-748v78,-118,222,-163,368,-114v161,54,210,268,210,490v0,154,-24,277,-78,368xm541,-492v0,-164,5,-346,-162,-346v-55,0,-90,35,-109,104v-35,129,-31,402,9,504v43,110,185,109,227,4v22,-54,35,-142,35,-266xm349,-1462r164,345r-105,0r-240,-345r181,0","w":785},"\u00f3":{"d":"644,-122v-60,101,-125,138,-240,138v-118,0,-196,-40,-260,-134v-110,-161,-108,-585,0,-748v78,-118,222,-163,368,-114v161,54,210,268,210,490v0,154,-24,277,-78,368xm541,-492v0,-164,5,-346,-162,-346v-55,0,-90,35,-109,104v-35,129,-31,402,9,504v43,110,185,109,227,4v22,-54,35,-142,35,-266xm437,-1462r180,0r-240,345r-104,0","w":785},"\u00f4":{"d":"480,-1462r149,349r-104,0r-133,-211r-132,211r-104,0r147,-349r177,0xm644,-122v-60,101,-125,138,-240,138v-118,0,-196,-40,-260,-134v-110,-161,-108,-585,0,-748v78,-118,222,-163,368,-114v161,54,210,268,210,490v0,154,-24,277,-78,368xm541,-492v0,-164,5,-346,-162,-346v-55,0,-90,35,-109,104v-35,129,-31,402,9,504v43,110,185,109,227,4v22,-54,35,-142,35,-266","w":785},"\u00f5":{"d":"554,-1398r79,0v-17,79,-37,136,-61,171v-49,72,-120,54,-205,24v-78,-28,-108,-23,-135,53r-80,0v17,-76,16,-96,47,-148v37,-62,76,-78,151,-63v47,9,91,36,136,37v33,0,55,-25,68,-74xm644,-122v-60,101,-125,138,-240,138v-118,0,-196,-40,-260,-134v-110,-161,-108,-585,0,-748v78,-118,222,-163,368,-114v161,54,210,268,210,490v0,154,-24,277,-78,368xm541,-492v0,-164,5,-346,-162,-346v-55,0,-90,35,-109,104v-35,129,-31,402,9,504v43,110,185,109,227,4v22,-54,35,-142,35,-266","w":785},"\u00f6":{"d":"437,-1273v0,-64,44,-105,108,-105v62,0,107,43,107,105v0,59,-45,100,-105,100v-61,0,-110,-41,-110,-100xm131,-1273v0,-64,44,-105,109,-105v61,0,109,43,109,105v0,60,-45,100,-107,100v-62,0,-111,-40,-111,-100xm644,-122v-60,101,-125,138,-240,138v-118,0,-196,-40,-260,-134v-110,-161,-108,-585,0,-748v78,-118,222,-163,368,-114v161,54,210,268,210,490v0,154,-24,277,-78,368xm541,-492v0,-164,5,-346,-162,-346v-55,0,-90,35,-109,104v-35,129,-31,402,9,504v43,110,185,109,227,4v22,-54,35,-142,35,-266","w":785},"\u00f7":{"d":"779,-800v0,-41,33,-73,74,-73v39,0,74,33,74,73v0,40,-34,74,-74,74v-40,0,-74,-34,-74,-74xm1456,-668r0,114r-1206,0r0,-114r1206,0xm781,-422v0,-40,34,-74,74,-74v40,0,74,34,74,74v0,41,-33,73,-74,73v-39,0,-74,-33,-74,-73","w":1706},"\u00f8":{"d":"57,-508v-6,-273,103,-499,345,-499v49,0,100,15,152,46r38,-93r68,33r-47,117v137,165,147,609,24,792v-93,138,-259,173,-418,83r-34,80r-68,-30r43,-109v-90,-143,-98,-197,-103,-420xm260,-297r220,-500v-66,-78,-155,-53,-197,41v-51,112,-49,295,-23,459xm297,-201v26,31,47,53,95,53v55,0,96,-35,121,-106v40,-111,37,-318,8,-451","w":785},"\u00f9":{"d":"410,-141v73,0,119,-63,119,-140r0,-701r180,0r0,693v-1,210,-91,310,-299,310v-211,0,-300,-97,-301,-310r0,-693r180,0r0,701v-2,75,49,140,121,140xm365,-1462r164,345r-105,0r-239,-345r180,0","w":816},"\u00fa":{"d":"410,-141v73,0,119,-63,119,-140r0,-701r180,0r0,693v-1,210,-91,310,-299,310v-211,0,-300,-97,-301,-310r0,-693r180,0r0,701v-2,75,49,140,121,140xm453,-1462r180,0r-239,345r-105,0","w":816},"\u00fb":{"d":"410,-141v73,0,119,-63,119,-140r0,-701r180,0r0,693v-1,210,-91,310,-299,310v-211,0,-300,-97,-301,-310r0,-693r180,0r0,701v-2,75,49,140,121,140xm496,-1462r148,349r-105,0r-131,-211r-131,211r-105,0r148,-349r176,0","w":816},"\u00fc":{"d":"453,-1273v0,-60,46,-105,107,-105v62,0,108,43,108,103v0,64,-41,102,-106,102v-60,0,-109,-41,-109,-100xm148,-1273v0,-64,44,-105,108,-105v63,0,109,40,109,103v0,63,-45,102,-109,102v-61,0,-108,-41,-108,-100xm410,-141v73,0,119,-63,119,-140r0,-701r180,0r0,693v-1,210,-91,310,-299,310v-211,0,-300,-97,-301,-310r0,-693r180,0r0,701v-2,75,49,140,121,140","w":816},"\u00fd":{"d":"484,-982r176,0r-391,1374r-189,0r152,-480r-203,-894r184,0r115,646xm379,-1462r181,0r-240,345r-105,0","w":672},"\u00fe":{"d":"476,16v-102,0,-141,-44,-191,-116r0,492r-180,0r0,-1946r180,0r0,664v73,-99,161,-139,279,-90v170,71,165,329,164,564v0,140,-22,247,-65,321v-43,74,-106,111,-187,111xm513,-207v30,-64,36,-214,36,-334v0,-102,-11,-176,-34,-223v-23,-47,-59,-70,-109,-70v-86,0,-129,114,-129,342v-1,132,-1,266,67,321v48,38,143,18,169,-36","w":802},"\u00ff":{"d":"381,-1273v0,-62,45,-105,107,-105v63,0,110,42,109,103v0,65,-41,102,-107,102v-60,0,-109,-41,-109,-100xm76,-1273v0,-61,45,-105,106,-105v62,0,111,42,111,103v0,64,-41,102,-106,102v-60,0,-111,-42,-111,-100xm484,-982r176,0r-391,1374r-189,0r152,-480r-203,-894r184,0r115,646","w":672},"\u02d8":{"d":"513,-1289v100,0,138,-41,139,-144r96,0v-18,186,-57,291,-235,291v-175,0,-235,-105,-236,-291r96,0v0,99,43,144,140,144","w":1025},"\u02d9":{"d":"406,-1273v0,-63,43,-105,107,-105v61,0,110,43,110,103v0,63,-43,102,-106,102v-62,0,-111,-40,-111,-100","w":1025},"\u0131":{"d":"297,-982r0,982r-180,0r0,-982r180,0","w":408},"\u02da":{"d":"55,-1158v0,-158,124,-300,279,-300v154,0,287,133,287,287v0,148,-136,281,-285,281v-141,0,-281,-129,-281,-268xm137,-1171v0,113,85,201,197,201v115,0,203,-88,203,-203v0,-113,-87,-201,-201,-201v-115,0,-199,87,-199,203","w":672},"\u02db":{"d":"574,467v-128,-3,-256,-48,-255,-178v0,-47,18,-94,55,-141v43,-54,107,-104,192,-150r98,0v-61,24,-185,149,-185,242v0,69,67,93,136,93v97,0,165,-44,211,-105v2,151,-100,242,-252,239","w":1025},"\u02c7":{"d":"644,-1462r104,0r-147,349r-177,0r-147,-349r104,0r132,211","w":1025},"\u0141":{"d":"131,-851r0,-611r197,0r0,496r82,-47r78,140r-160,92r0,596r420,0r0,185r-617,0r0,-666r-92,53r-80,-139","w":773},"\u0142":{"d":"117,-851r0,-703r180,0r0,599r99,-58r78,140r-177,102r0,771r-180,0r0,-666r-92,53r-80,-139","w":408},"\u2215":{"d":"545,-1482r136,0r-882,1498r-139,0","w":344},"\uf001":{"d":"125,-1324v-1,-148,71,-244,213,-244v35,0,73,6,115,18r0,164r-70,-10v-50,0,-75,31,-75,94r0,320r137,0r0,141r-137,0r0,841r-183,0r0,-841r-96,0r0,-141r96,0r0,-342xm521,-1273v0,-68,46,-113,115,-113v65,0,112,46,112,111v0,66,-50,113,-115,113v-66,0,-112,-44,-112,-111xm726,-982r0,982r-181,0r0,-982r181,0","w":841},"\uf002":{"d":"125,-1324v-1,-148,71,-244,213,-244v35,0,73,6,115,18r0,164r-70,-10v-50,0,-75,31,-75,94r0,320r137,0r0,141r-137,0r0,841r-183,0r0,-841r-96,0r0,-141r96,0r0,-342xm726,-1554r0,1554r-181,0r0,-1554r181,0","w":841},"\u017d":{"d":"88,-1462r673,0r-468,1277r429,0r0,185r-701,0r471,-1289r-404,0r0,-173xm549,-1941r107,0r-150,348r-176,0r-148,-348r105,0r131,211","w":785},"\u017e":{"d":"47,-982r601,0r-363,822r336,0r0,160r-592,0r363,-824r-345,0r0,-158xm467,-1462r105,0r-148,349r-176,0r-150,-349r107,0r131,211","w":677},"\u0112":{"d":"2571,-195v-21,47,-46,119,-8,162r-228,0v-98,0,-119,-32,-119,-129v0,-54,40,-308,53,-365r-129,0v-34,100,-78,377,-96,494r-269,0r74,-430r-20,0r-216,430r-258,0r0,-344r-55,0r-140,344r-258,0v-16,-71,-31,-177,-33,-248r-33,0v-45,176,-233,273,-463,271v-217,-1,-348,-104,-355,-314r292,0v16,65,51,97,129,98v44,1,117,-34,117,-75v0,-31,-39,-56,-117,-75v-114,-29,-186,-51,-217,-68v-78,-42,-117,-106,-117,-192v0,-220,215,-344,451,-344v205,0,336,95,336,291r-281,0v-26,-53,-49,-74,-119,-76v-40,-1,-87,25,-86,64v0,23,18,42,54,52v133,38,256,72,360,143v0,-48,-5,-73,6,-119r228,0v0,38,40,261,53,291r119,-291r268,0r0,301r44,0v9,-43,66,-173,86,-203r354,0v21,-38,33,-102,33,-162r-119,0v40,-111,60,-168,61,-169v21,-41,55,-68,101,-81v46,-13,133,-20,258,-20r0,172v-40,0,-96,-7,-115,13v-10,10,-21,34,-34,73r149,0r11,-74v9,-52,17,-92,24,-119r259,0v-7,30,-13,61,-18,94v-1,9,-6,46,-15,111r129,0r-12,64v130,-76,150,-97,313,-97v264,0,319,128,324,410r-508,0v0,82,31,129,108,130v38,9,111,-51,130,-56r237,0v-101,144,-172,217,-389,217v-207,0,-239,-40,-334,-174xm3069,-453v0,-62,-26,-95,-86,-96v-34,0,-63,10,-81,34v-20,28,-31,50,-40,62r207,0xm2550,-248v0,-46,-5,-97,8,-133r48,-136r-56,0v-5,31,-11,63,-16,97v-12,90,-21,120,-15,172r31,0","w":3360}}});
/*!
 * The following copyright notice may not be removed under any circumstances.
 * 
 * Copyright:
 * Copyright © 1986-1992 SWFTE International, Ltd. All rights reserved
 * 
 * Trademark:
 * Futuri Condensed is a trademark of SWFTE International, Ltd.
 */
Cufon.registerFont({"w":789,"face":{"font-family":"Futuri Condensed","font-weight":400,"font-stretch":"normal","units-per-em":"2048","panose-1":"0 0 0 0 0 0 0 0 0 0","ascent":"1638","descent":"-410","x-height":"18","bbox":"-340 -1974 3327 480","underline-thickness":"70","underline-position":"-115","unicode-range":"U+0020-U+F002"},"glyphs":{" ":{"w":426},"!":{"d":"369,-1462r0,1105r-180,0r0,-1105r180,0xm164,-96v0,-63,50,-109,115,-109v66,0,113,43,113,109v0,63,-52,112,-115,112v-65,0,-113,-47,-113,-112","w":556},"\"":{"d":"496,-1433r0,551r-119,0r0,-551r119,0xm213,-1433r0,551r-117,0r0,-551r117,0","w":588},"#":{"d":"1164,-984r310,0r-45,119r-312,0r-96,277r332,0r-43,119r-332,0r-166,469r-148,0r168,-469r-264,0r-168,469r-140,0r164,-469r-319,0r43,-119r321,0r95,-277r-345,0r45,-119r345,0r168,-474r143,0r-164,474r261,0r168,-474r143,0xm877,-588r97,-277r-265,0r-92,277r260,0","w":1579},"$":{"d":"53,-1070v0,-208,54,-339,211,-392r0,-211r80,0r0,195r93,0r0,-195r80,0r0,207v51,20,83,35,94,44v31,25,68,80,111,165r-162,80v-20,-73,-65,-131,-146,-133v-119,-1,-171,87,-171,217v0,44,14,84,43,121v41,52,121,129,251,213v102,66,194,207,193,369v-1,168,-91,340,-213,386r0,213r-80,0r0,-193v-35,0,-50,-1,-88,5r0,188r-85,0r0,-205v-113,-37,-162,-96,-213,-205r164,-92v23,75,65,130,148,133v156,5,209,-192,145,-332v-19,-42,-39,-81,-71,-105v-159,-120,-270,-212,-324,-287v-40,-55,-60,-117,-60,-186"},"%":{"d":"76,-1101v2,-227,45,-375,240,-375v105,0,176,28,214,84v41,61,62,176,62,346v0,154,-15,260,-45,319v-36,71,-106,106,-209,106v-163,0,-223,-67,-248,-214v-9,-57,-14,-146,-14,-266xm1054,-1482r123,0r-660,1498r-130,0xm334,-1341v-101,0,-113,99,-113,226v0,104,4,177,11,218v17,97,55,145,112,145v33,0,56,-24,75,-71v32,-80,34,-370,-1,-449v-20,-46,-46,-69,-84,-69xm982,-459v1,-226,47,-375,240,-375v105,0,176,28,214,84v42,61,63,177,63,348v0,154,-15,260,-45,319v-36,71,-106,106,-210,106v-163,0,-222,-68,-248,-216v-9,-57,-14,-145,-14,-266xm1240,-697v-99,0,-112,98,-112,223v0,106,4,179,11,220v17,97,55,145,114,145v33,0,56,-24,75,-70v32,-78,33,-371,-2,-449v-20,-45,-47,-69,-86,-69","w":1574},"&":{"d":"463,-1482v169,0,315,131,308,303v-8,181,-148,300,-250,406r215,353r137,-189r136,96r-181,244r164,269r-219,0r-76,-125v-94,85,-147,137,-289,141v-197,5,-334,-183,-326,-391v8,-207,85,-278,211,-422v-86,-142,-129,-269,-129,-382v0,-163,137,-303,299,-303xm476,-1324v-117,0,-152,118,-119,231v11,39,35,96,71,173v65,-66,107,-118,131,-154v59,-91,39,-250,-83,-250xm258,-375v-7,137,133,268,260,185v27,-17,57,-46,91,-87r-228,-367v-75,95,-116,142,-123,269","w":1046},"'":{"d":"201,-1554r156,49r-189,513r-100,-29","w":420},"(":{"d":"303,-595v-5,404,75,651,185,972r-172,56v-170,-392,-258,-997,-155,-1509v27,-137,79,-315,155,-533r172,51v-108,315,-180,573,-185,963","w":560},")":{"d":"264,-584v6,-398,-76,-656,-182,-970r172,-55v169,392,254,992,155,1501v-28,143,-80,324,-155,541r-172,-52v106,-315,176,-570,182,-965","w":560},"*":{"d":"488,-1150r197,113r-47,84r-197,-113r0,225r-97,0r0,-225r-200,113r-48,-84r197,-113r-197,-115r48,-84r200,111r0,-224r97,0r0,224r197,-111r47,88","w":781},"+":{"d":"1453,-668r0,114r-541,0r0,554r-115,0r0,-554r-545,0r0,-114r545,0r0,-554r115,0r0,554r541,0","w":1706},",":{"d":"189,-244r151,47r-188,513r-101,-31","w":396},"-":{"d":"484,-572r0,164r-408,0r0,-164r408,0","w":560},".":{"d":"84,-92v0,-68,46,-111,115,-111v67,0,113,44,113,111v0,63,-49,110,-113,110v-66,0,-115,-44,-115,-110","w":396},"\/":{"d":"420,-1482r148,0r-424,1671r-144,0","w":568},"0":{"d":"655,-1326v85,159,89,978,6,1161v-55,121,-136,186,-261,186v-121,0,-204,-44,-251,-133v-57,-107,-85,-313,-85,-616v0,-285,25,-483,76,-594v49,-107,133,-160,254,-160v127,0,207,56,261,156xm285,-1204v-40,129,-43,784,3,920v28,84,65,128,124,128v51,0,82,-50,103,-149v29,-138,25,-807,-5,-899v-22,-70,-59,-108,-120,-108v-51,0,-83,37,-105,108"},"1":{"d":"504,-1462r0,1462r-184,0r0,-1285r-181,0r0,-177r365,0"},"2":{"d":"510,-1006v33,-131,19,-306,-129,-306v-41,0,-71,22,-92,65v-25,52,-37,140,-37,263r-184,0v1,-230,44,-390,182,-466v41,-22,90,-32,146,-32v205,-2,334,152,330,363v-3,152,-61,300,-125,416r-285,514r381,0r0,189r-664,0r387,-777v45,-90,67,-138,90,-229"},"3":{"d":"527,-422v0,-211,-66,-255,-279,-261r0,-162v221,-4,262,-33,262,-246v0,-153,-44,-229,-133,-229v-131,0,-137,102,-141,252r-168,0v1,-265,68,-414,307,-414v220,0,324,152,322,385v-1,186,-44,282,-176,332v175,52,195,131,197,373v2,254,-114,415,-355,415v-242,0,-317,-156,-320,-404r172,0v-6,140,41,225,150,225v108,0,162,-89,162,-266"},"4":{"d":"726,-560r0,164r-105,0r0,396r-184,0r0,-396r-396,0r0,-188r412,-878r168,0r0,902r105,0xm180,-560r261,0r0,-582"},"5":{"d":"519,-496v-3,-213,-68,-287,-269,-287v-63,0,-106,9,-166,22r96,-701r513,0r0,181r-361,0r-55,356v286,-45,426,147,426,423v0,333,-202,591,-542,506v-41,-11,-89,-29,-145,-55r48,-172v64,40,118,71,203,71v161,0,255,-166,252,-344"},"6":{"d":"66,-463v0,-214,36,-312,105,-498v51,-137,128,-303,225,-501r217,0v-126,160,-240,414,-332,630v51,-42,88,-72,166,-72v232,0,277,156,277,418v0,187,-30,321,-90,400v-52,69,-132,104,-240,104v-219,0,-328,-160,-328,-481xm248,-449v0,103,14,176,36,223v42,92,188,93,227,2v41,-56,43,-345,17,-422v-21,-64,-67,-96,-138,-96v-95,0,-142,98,-142,293"},"7":{"d":"68,-1462r697,0r-484,1462r-205,0r437,-1289r-445,0r0,-173"},"8":{"d":"701,-1111v0,183,-41,247,-164,318v148,61,176,155,176,371v0,280,-64,438,-317,438v-252,0,-322,-164,-322,-440v0,-213,34,-307,178,-369v-125,-67,-160,-129,-164,-310v-6,-242,73,-381,302,-381v241,0,311,117,311,373xm521,-1099v0,-141,-11,-221,-134,-221v-102,0,-116,109,-116,246v0,137,41,205,123,205v107,0,127,-99,127,-230xm292,-630v-33,74,-42,345,-1,420v40,75,168,75,207,-6v34,-72,36,-349,2,-422v-41,-87,-170,-78,-208,8"},"9":{"d":"396,-1484v223,0,329,212,326,465v-3,305,-104,598,-225,829r-105,190r-212,0v133,-178,247,-395,328,-629v-72,73,-188,98,-285,54v-124,-56,-157,-213,-157,-413v0,-181,32,-312,95,-393v53,-69,132,-103,235,-103xm383,-1308v-45,0,-76,27,-103,77v-46,85,-42,365,-4,445v39,83,198,87,232,-2v42,-66,42,-366,5,-441v-25,-52,-67,-79,-130,-79"},":":{"d":"164,-613v0,-68,46,-111,115,-111v67,0,113,44,113,111v0,66,-47,111,-113,111v-67,0,-115,-44,-115,-111xm164,-92v0,-64,51,-111,115,-111v66,0,113,45,113,111v0,65,-48,110,-113,110v-66,0,-115,-44,-115,-110","w":556},";":{"d":"197,-613v0,-66,45,-111,111,-111v67,0,112,45,112,111v0,63,-46,111,-110,111v-61,0,-113,-50,-113,-111xm269,-244r151,47r-184,513r-101,-31","w":556},"<":{"d":"1441,-205r0,129r-1177,-484r0,-100r1177,-486r0,129r-996,404","w":1706},"=":{"d":"1453,-861r0,117r-1201,0r0,-117r1201,0xm1453,-476r0,115r-1201,0r0,-115r1201,0","w":1706},">":{"d":"1441,-660r0,100r-1177,484r0,-129r1001,-408r-1001,-404r0,-129","w":1706},"?":{"d":"16,-1113v2,-251,36,-371,259,-371v113,0,186,31,220,94v27,49,40,152,40,308v0,158,-17,269,-51,332v-28,52,-72,78,-131,78r0,307r-173,0r0,-432v74,0,122,-14,143,-43v46,-38,51,-348,19,-432v-23,-62,-109,-72,-138,-19v-16,31,-24,90,-24,178r-164,0xm148,-96v0,-66,47,-109,114,-109v69,0,115,41,115,109v0,64,-52,112,-117,112v-66,0,-112,-46,-112,-112","w":560},"@":{"d":"1023,189v249,-4,467,-82,635,-189r44,64v-184,131,-379,216,-661,221v-515,9,-928,-311,-928,-804v0,-543,454,-941,1008,-941v441,0,816,274,816,693v0,315,-248,653,-547,648v-137,-2,-204,-46,-205,-180v-60,97,-164,178,-303,180v-192,3,-310,-139,-310,-336v0,-273,213,-552,474,-552v109,0,191,54,248,162r55,-121r113,0r-128,534v-14,62,-22,99,-22,112v0,63,33,94,98,94v224,2,411,-289,400,-535v-19,-388,-295,-592,-707,-598v-468,-7,-863,373,-863,836v0,432,338,720,783,712xm713,-453v0,138,67,236,197,236v146,0,265,-125,295,-255r56,-246v-31,-124,-100,-186,-207,-186v-208,-2,-341,224,-341,451","w":2050},"A":{"d":"545,-1462r341,1462r-197,0r-72,-289r-332,0r-70,289r-199,0r345,-1462r184,0xm320,-453r260,0r-127,-631","w":900},"B":{"d":"795,-1064v0,175,-71,254,-198,312v151,51,221,116,221,301v0,319,-106,445,-414,451r-287,0r0,-1462r270,0v303,0,408,103,408,398xm312,-832v227,0,289,-30,289,-236v0,-206,-62,-217,-289,-221r0,457xm312,-189v247,-3,305,-14,305,-233v0,-221,-67,-247,-305,-250r0,483","w":890},"C":{"d":"556,-170v76,0,115,-23,180,-53r0,190v-66,32,-125,51,-213,51v-151,0,-262,-65,-334,-195v-69,-123,-103,-308,-103,-553v0,-243,39,-426,112,-554v105,-184,320,-247,538,-157r0,188v-101,-49,-196,-61,-284,-15v-52,27,-88,81,-118,155v-71,172,-67,640,8,794v48,98,116,149,214,149","w":781},"D":{"d":"131,-1462r261,0v195,0,333,52,414,156v85,109,127,301,127,574v0,269,-39,457,-117,565v-80,111,-221,167,-424,167r-261,0r0,-1462xm328,-189v167,0,276,-35,325,-104v53,-74,79,-237,79,-490v0,-214,-30,-352,-89,-415v-50,-53,-155,-79,-315,-79r0,1088","w":1013},"E":{"d":"709,-185r0,185r-584,0r0,-1462r584,0r0,177r-389,0r0,436r357,0r0,172r-357,0r0,492r389,0"},"F":{"d":"728,-1462r0,177r-400,0r0,436r369,0r0,177r-369,0r0,672r-197,0r0,-1462r597,0"},"G":{"d":"519,-1302v-267,0,-241,333,-241,633v0,211,2,334,75,434v34,46,89,67,160,67v81,0,138,-32,172,-95v37,-68,55,-185,55,-350r-207,0r0,-172r392,0v0,229,-13,402,-45,515v-57,203,-135,288,-380,288v-142,0,-245,-51,-310,-152v-73,-115,-110,-313,-110,-594v0,-274,33,-468,100,-582v67,-114,178,-172,333,-172v239,0,330,112,395,309r-176,84v-31,-142,-102,-213,-213,-213","w":1005},"H":{"d":"877,-1462r0,1462r-196,0r0,-722r-353,0r0,722r-197,0r0,-1462r197,0r0,558r353,0r0,-558r196,0","w":1009},"I":{"d":"328,-1462r0,1462r-197,0r0,-1462r197,0","w":461},"J":{"d":"162,-168v100,0,136,-91,135,-205r0,-1089r195,0r0,1085v-2,270,-100,403,-312,398v-84,-2,-130,-28,-196,-64r0,-201v68,51,127,76,178,76","w":621},"K":{"d":"521,-765r348,765r-213,0r-340,-748r0,748r-195,0r0,-1462r195,0r0,693r344,-693r209,0","w":894},"L":{"d":"748,-185r0,185r-617,0r0,-1462r197,0r0,1277r420,0","w":773},"M":{"d":"949,-1462r127,1462r-182,0r-62,-1025r-190,1025r-138,0r-192,-1025r-60,1025r-180,0r125,-1462r180,0r195,1013r205,-1013r172,0","w":1146},"N":{"d":"886,-1462r0,1462r-185,0r-385,-1021r0,1021r-187,0r0,-1462r183,0r385,1013r0,-1013r189,0","w":1013},"O":{"d":"916,-728v0,259,-28,444,-85,557v-65,128,-178,192,-339,192v-139,0,-241,-60,-306,-179v-65,-119,-98,-307,-98,-562v1,-309,23,-524,153,-666v61,-66,150,-96,261,-96v135,0,235,51,300,153v76,119,114,320,114,601xm289,-791v0,229,17,390,49,483v32,93,88,140,168,140v71,0,118,-33,154,-91v87,-141,74,-806,0,-936v-39,-68,-89,-107,-166,-107v-137,0,-205,170,-205,511","w":1005},"P":{"d":"841,-1052v0,317,-171,408,-513,408r0,644r-197,0r0,-1462r242,0v306,1,468,116,468,410xm328,-820v119,0,195,-9,229,-26v58,-29,87,-99,87,-208v0,-214,-86,-228,-316,-235r0,469","w":898},"Q":{"d":"823,-1308v112,204,153,936,-11,1173r117,164r-117,84r-103,-150v-72,35,-120,51,-215,51v-139,0,-241,-54,-306,-162v-68,-114,-102,-298,-102,-551v0,-312,14,-509,131,-662v63,-83,161,-121,285,-121v152,0,258,59,321,174xm689,-308v60,-200,43,-685,-6,-837v-33,-102,-94,-153,-181,-153v-77,0,-129,43,-168,124v-77,160,-54,773,7,896v48,96,146,128,251,85r-127,-176r115,-84","w":1005},"R":{"d":"810,-1091v0,231,-84,328,-277,369r349,722r-214,0r-336,-713r-4,0r0,713r-197,0r0,-1462r238,0v299,2,441,88,441,371xm328,-824v218,-1,281,-34,281,-236v0,-220,-44,-223,-281,-229r0,465","w":894},"S":{"d":"422,-1478v112,2,158,26,255,66r0,194v-84,-47,-123,-75,-228,-78v-110,-3,-200,88,-195,199v9,178,186,265,297,367v117,107,174,167,179,353v6,220,-158,403,-373,398v-111,-2,-169,-31,-261,-76r0,-201v84,47,152,83,257,86v147,4,236,-179,150,-310v-24,-37,-56,-85,-109,-129v-134,-110,-210,-163,-282,-279v-39,-62,-55,-130,-55,-201v0,-218,151,-392,365,-389"},"T":{"d":"761,-1462r0,185r-273,0r0,1277r-195,0r0,-1277r-272,0r0,-185r740,0","w":781},"U":{"d":"500,21v-273,3,-379,-139,-379,-408r0,-1075r191,0r0,1089v0,137,65,205,194,205v127,0,191,-68,191,-205r0,-1089r193,0r0,1075v0,286,-110,405,-390,408","w":1009},"V":{"d":"629,-1462r199,0r-324,1462r-164,0r-319,-1462r198,0r205,993","w":849},"W":{"d":"1009,-1462r196,0r-244,1462r-159,0r-181,-1037r-184,1037r-160,0r-244,-1462r190,0r146,1001r168,-1001r164,0r172,1001","w":1238},"X":{"d":"492,-744r269,744r-205,0r-164,-508r-164,508r-203,0r268,-744r-256,-718r195,0r160,480r162,-480r194,0","w":785},"Y":{"d":"568,-1462r205,0r-281,841r0,621r-199,0r0,-621r-277,-841r203,0r112,427v26,95,46,166,61,215"},"Z":{"d":"88,-1462r673,0r-468,1277r429,0r0,185r-701,0r471,-1289r-404,0r0,-173","w":785},"[":{"d":"517,219r0,162r-378,0r0,-1943r378,0r0,160r-197,0r0,1621r197,0","w":560},"\\":{"d":"144,-1482r420,1671r-144,0r-420,-1671r144,0","w":568},"]":{"d":"47,219r199,0r0,-1621r-199,0r0,-160r379,0r0,1943r-379,0r0,-162","w":560},"^":{"d":"1105,-1462r521,562r-160,0r-441,-441r-445,441r-160,0r525,-562r160,0","w":2050},"_":{"d":"1025,365r0,115r-1025,0r0,-115r1025,0","w":1025},"`":{"d":"469,-1462r164,345r-104,0r-240,-345r180,0","w":1025},"a":{"d":"330,-1000v98,0,138,44,191,110r0,-92r180,0r0,982r-180,0r0,-96v-49,63,-94,114,-185,114v-84,0,-145,-28,-184,-85v-53,-79,-80,-223,-80,-433v0,-333,86,-500,258,-500xm282,-752v-39,93,-33,430,0,523v37,105,169,105,211,5v37,-88,41,-446,-3,-530v-27,-51,-62,-80,-113,-80v-43,0,-72,28,-95,82","w":802},"b":{"d":"480,18v-101,3,-144,-47,-195,-114r0,96r-180,0r0,-1554r180,0r0,668v43,-61,104,-114,193,-114v125,0,160,56,204,157v49,113,55,434,34,590v-22,156,-81,267,-236,271xm308,-748v-39,91,-35,438,0,524v40,96,166,99,208,8v50,-107,32,-482,-12,-551v-25,-40,-55,-63,-102,-63v-43,0,-71,28,-94,82","w":802},"c":{"d":"387,-156v50,0,76,-17,109,-45r0,185v-134,64,-282,47,-361,-79v-93,-148,-101,-630,-7,-782v82,-134,211,-156,368,-84r0,172v-40,-30,-75,-45,-104,-45v-101,0,-152,117,-152,352v0,217,49,326,147,326","w":525},"d":{"d":"326,-998v101,0,142,44,195,112r0,-668r180,0r0,1554r-180,0r0,-96v-43,57,-111,114,-193,114v-80,0,-138,-42,-188,-118v-102,-154,-70,-638,-12,-768v38,-86,103,-130,198,-130xm292,-773v-36,58,-58,452,-7,557v43,89,165,88,207,0v47,-98,36,-429,-2,-523v-23,-58,-49,-89,-86,-89v-56,0,-90,20,-112,55","w":802},"e":{"d":"668,-328v1,216,-88,349,-289,349v-104,0,-182,-42,-238,-125v-119,-176,-108,-656,26,-807v51,-58,117,-89,200,-89v127,0,212,43,256,128v39,75,58,213,58,415r-449,0v0,109,12,191,36,245v24,54,62,81,115,81v91,0,121,-93,121,-197r164,0xm232,-601r272,0v0,-93,-12,-157,-28,-196v-29,-69,-151,-72,-195,-19v-32,38,-49,110,-49,215","w":740},"f":{"d":"125,-1324v-1,-148,71,-244,213,-244v35,0,73,6,115,18r0,164r-70,-10v-50,0,-75,31,-75,94r0,320r137,0r0,141r-137,0r0,841r-183,0r0,-841r-96,0r0,-141r96,0r0,-342","w":449},"g":{"d":"334,-1000v96,0,134,44,187,110r0,-92r180,0r0,1003v-4,266,-76,371,-338,371v-200,0,-283,-105,-283,-312r172,0v10,108,48,162,115,162v46,0,79,-14,100,-43v36,-50,54,-150,54,-299v-47,69,-97,112,-197,112v-134,0,-177,-61,-213,-173v-59,-183,-71,-630,49,-763v44,-49,100,-76,174,-76xm283,-744v-30,82,-46,426,2,525v43,89,173,87,211,-5v32,-76,41,-422,2,-515v-26,-63,-63,-97,-119,-97v-43,0,-73,31,-96,92","w":802},"h":{"d":"400,-828v-70,0,-107,69,-107,147r0,681r-180,0r0,-1554r180,0r0,668v53,-71,122,-106,207,-106v142,0,213,81,213,244r0,748r-180,0r0,-660v-2,-119,-21,-168,-133,-168","w":816},"i":{"d":"92,-1273v0,-68,46,-113,115,-113v66,0,113,45,113,111v0,66,-50,113,-115,113v-67,0,-113,-44,-113,-111xm297,-982r0,982r-180,0r0,-982r180,0","w":408},"j":{"d":"92,-1273v0,-68,46,-113,115,-113v66,0,113,45,113,111v0,66,-50,113,-115,113v-67,0,-113,-44,-113,-111xm297,-982r0,1374r-180,0r0,-1374r180,0","w":408},"k":{"d":"480,-533r285,533r-197,0r-269,-517r0,517r-178,0r0,-1554r178,0r0,1009r261,-437r192,0","w":785},"l":{"d":"297,-1554r0,1554r-180,0r0,-1554r180,0","w":408},"m":{"d":"494,-992v102,0,149,48,199,119v59,-72,106,-119,215,-119v154,0,213,83,213,244r0,748r-180,0r0,-660v-1,-119,-22,-168,-131,-168v-69,0,-105,70,-105,147r0,681r-180,0r0,-660v-2,-106,-16,-166,-109,-168v-83,-2,-124,61,-123,147r0,681r-180,0r0,-982r180,0r0,96v52,-66,100,-106,201,-106","w":1230},"n":{"d":"400,-828v-70,0,-107,69,-107,147r0,681r-180,0r0,-982r180,0r0,96v53,-71,121,-106,205,-106v143,0,215,81,215,244r0,748r-180,0r0,-660v-2,-119,-21,-168,-133,-168","w":816},"o":{"d":"722,-490v1,292,-85,508,-343,508v-101,0,-176,-48,-235,-136v-109,-162,-112,-588,0,-748v60,-86,138,-132,241,-132v109,0,190,36,244,107v62,82,93,216,93,401xm279,-230v46,109,180,107,227,4v38,-83,38,-427,8,-517v-34,-102,-181,-132,-232,-32v-44,85,-44,447,-3,545","w":785},"p":{"d":"478,12v-102,0,-146,-42,-193,-112r0,492r-180,0r0,-1374r180,0r0,92v42,-62,108,-115,197,-115v124,0,156,60,200,159v46,104,54,402,39,555v-17,172,-80,303,-243,303xm517,-219v43,-88,32,-445,7,-517v-22,-65,-61,-98,-120,-98v-85,0,-127,114,-127,342v0,135,14,227,37,278v37,84,163,79,203,-5","w":802},"q":{"d":"326,-998v101,0,142,44,195,112r0,-96r180,0r0,1374r-180,0r0,-488v-57,76,-119,114,-185,114v-99,0,-166,-45,-210,-132v-71,-139,-74,-627,7,-763v46,-78,106,-121,193,-121xm291,-782v-47,66,-52,482,-5,562v33,95,178,85,212,-5v31,-83,39,-431,-4,-521v-26,-53,-55,-82,-98,-82v-53,0,-85,17,-105,46","w":802},"r":{"d":"529,-810v-168,2,-236,54,-236,218r0,592r-176,0r0,-982r172,0r0,141v69,-105,97,-139,240,-159r0,190","w":556},"s":{"d":"342,-845v-95,0,-148,106,-91,185v43,59,185,168,223,260v21,51,36,99,36,150v3,156,-122,269,-280,266v-73,-1,-114,-13,-175,-37r0,-188v60,45,113,68,158,68v68,0,127,-52,125,-119v-2,-89,-98,-158,-152,-210v-65,-63,-127,-157,-129,-262v-3,-148,117,-270,265,-270v44,0,98,14,162,41r0,184v-43,-45,-91,-68,-142,-68","w":560},"t":{"d":"441,-982r0,133r-138,0r0,849r-178,0r0,-849r-100,0r0,-133r100,0r0,-266r178,0r0,266r138,0","w":449},"u":{"d":"410,-141v73,0,119,-63,119,-140r0,-701r180,0r0,693v-1,210,-91,310,-299,310v-211,0,-300,-97,-301,-310r0,-693r180,0r0,701v-2,75,49,140,121,140","w":816},"v":{"d":"469,-982r183,0r-244,982r-144,0r-243,-982r184,0r131,738v9,-64,19,-126,30,-188","w":672},"w":{"d":"797,-982r181,0r-234,982r-123,0r-117,-693v-2,36,-16,111,-41,263r-76,430r-123,0r-227,-982r176,0r91,530v17,103,26,164,28,183r117,-713r115,0r96,574v11,71,17,118,17,139","w":1009},"x":{"d":"433,-521r223,521r-191,0r-133,-344r-127,344r-189,0r224,-521r-193,-461r189,0r96,281r105,-281r184,0","w":668},"y":{"d":"484,-982r176,0r-391,1374r-189,0r152,-480r-203,-894r184,0r115,646","w":672},"z":{"d":"47,-982r601,0r-363,822r336,0r0,160r-592,0r363,-824r-345,0r0,-158","w":677},"{":{"d":"609,43v6,216,35,240,252,246r0,123v-157,0,-260,-18,-308,-55v-61,-47,-92,-151,-92,-310r0,-244v-5,-224,-60,-267,-289,-272r0,-123v224,-4,289,-56,289,-277r0,-244v8,-324,67,-356,400,-365r0,125v-225,4,-245,24,-252,244v-4,132,10,357,-22,437v-26,61,-86,108,-179,139v164,62,201,117,201,336r0,240","w":1025},"|":{"d":"576,-1566r0,2046r-127,0r0,-2046r127,0","w":1025},"}":{"d":"861,-469v-230,5,-289,46,-289,272r0,244v-13,316,-67,362,-400,365r0,-123v217,-6,252,-30,252,-246r0,-240v5,-219,37,-273,201,-336v-93,-31,-153,-78,-179,-139v-33,-78,-18,-307,-22,-437v-7,-220,-25,-240,-252,-244r0,-125v335,9,391,39,400,365r0,244v4,219,66,273,289,277r0,123","w":1025},"~":{"d":"1277,-1097v161,0,216,-115,217,-293r132,0v2,248,-105,418,-339,418v-126,0,-244,-84,-309,-166v-69,-87,-82,-125,-211,-125v-166,0,-207,108,-211,289r-136,0v-1,-260,105,-416,349,-416v115,0,213,57,303,166v72,86,86,127,205,127","w":2050},"\u201a":{"d":"201,-244r156,47r-189,513r-100,-31","w":453},"\u0192":{"d":"336,-882r68,-407v14,-164,181,-227,357,-173r-33,156v-95,-23,-141,5,-156,96r-55,328r184,0r-24,130r-181,0r-160,941v-22,142,-56,205,-199,205v-33,0,-76,-8,-129,-25r29,-156v71,19,114,-5,127,-82r148,-883r-168,0r24,-130r168,0"},"\u201e":{"d":"449,-244r156,47r-189,513r-100,-31xm201,-244r156,47r-189,513r-100,-31","w":672},"\u2026":{"d":"1593,-92v0,-71,43,-111,115,-111v70,0,114,42,114,111v0,67,-46,110,-114,110v-69,0,-116,-43,-115,-110xm908,-92v0,-71,43,-111,115,-111v69,0,115,43,115,111v0,67,-47,110,-115,110v-69,0,-116,-43,-115,-110xm228,-92v0,-71,43,-111,114,-111v69,0,115,43,115,111v0,67,-47,110,-115,110v-68,0,-114,-43,-114,-110","w":2050},"\u2020":{"d":"752,-996r0,172r-268,0r0,1228r-187,0r0,-1228r-268,0r0,-172r268,0r0,-466r187,0r0,466r268,0","w":781},"\u2021":{"d":"752,-205r0,164r-276,0r0,445r-173,0r0,-445r-274,0r0,-164r274,0r0,-656r-274,0r0,-160r274,0r0,-441r173,0r0,441r276,0r0,160r-276,0r0,656r276,0","w":781},"\u02c6":{"d":"601,-1462r147,349r-104,0r-131,-211r-132,211r-104,0r147,-349r177,0","w":1025},"\u2030":{"d":"320,-1476v249,3,272,159,272,430v0,156,-15,263,-46,322v-36,69,-106,103,-210,103v-93,0,-156,-35,-200,-95v-75,-104,-76,-557,-2,-664v43,-61,101,-96,186,-96xm1054,-1482r123,0r-660,1498r-130,0xm1222,-834v247,0,268,155,268,430v0,152,-15,257,-45,315v-37,70,-108,105,-213,105v-96,0,-159,-33,-201,-92v-71,-98,-71,-552,-6,-657v40,-65,102,-101,197,-101xm223,-1050v0,142,1,296,121,298v33,0,56,-23,75,-66v37,-83,24,-375,-1,-450v-27,-81,-119,-97,-159,-36v-26,40,-36,126,-36,254xm1144,-644v-23,61,-24,412,8,470v21,39,49,61,96,61v29,0,51,-23,70,-66v38,-88,27,-375,-2,-447v-20,-49,-47,-75,-86,-75v-45,0,-72,20,-86,57xm1868,-834v247,0,268,155,268,430v0,152,-15,257,-45,315v-37,70,-108,105,-213,105v-96,0,-159,-33,-201,-92v-71,-98,-71,-552,-6,-657v40,-65,102,-101,197,-101xm1790,-644v-23,61,-24,412,8,470v21,39,49,61,96,61v29,0,51,-23,70,-66v38,-88,27,-375,-2,-447v-20,-49,-47,-75,-86,-75v-45,0,-72,20,-86,57","w":2210},"\u0160":{"d":"533,-1941r107,0r-150,348r-176,0r-148,-348r105,0r131,211xm422,-1478v107,2,174,27,255,66r0,194v-69,-45,-127,-74,-228,-78v-110,-5,-195,88,-195,199v0,170,199,265,297,367v39,40,84,76,115,125v42,67,64,143,64,228v0,220,-158,405,-373,398v-104,-3,-178,-33,-261,-76r0,-201v73,43,156,84,257,86v105,2,184,-91,184,-199v0,-90,-108,-215,-193,-281v-130,-101,-281,-222,-287,-439v-5,-218,151,-393,365,-389"},"\u2039":{"d":"209,-488r199,371r-111,62r-238,-433r238,-437r111,60","w":472},"\u0152":{"d":"482,-1482v133,0,170,59,244,149r0,-133r539,0r0,177r-388,0r0,440r357,0r0,172r-357,0r0,492r388,0r0,185r-539,0r0,-125v-71,87,-120,139,-257,139v-133,0,-225,-64,-291,-182v-117,-209,-118,-952,7,-1148v68,-107,162,-166,297,-166xm333,-1166v-60,152,-61,721,1,866v36,84,85,128,158,128v60,0,106,-46,143,-135v66,-158,81,-531,53,-737v-20,-149,-66,-258,-210,-258v-65,0,-109,46,-145,136","w":1341},"\u2018":{"d":"252,-1554r105,33r-138,533r-151,-49","w":420},"\u2019":{"d":"201,-1554r156,49r-189,513r-100,-29","w":420},"\u201c":{"d":"500,-1554r105,33r-136,533r-153,-49xm252,-1554r105,33r-138,533r-151,-49","w":672},"\u201d":{"d":"449,-1554r156,49r-189,513r-100,-29xm201,-1554r156,49r-189,513r-100,-29","w":672},"\u2022":{"d":"84,-728v0,-68,47,-115,115,-115v65,0,113,49,113,115v0,64,-49,111,-113,111v-67,0,-115,-44,-115,-111","w":396},"\u2013":{"d":"1025,-554r0,121r-1025,0r0,-121r1025,0","w":1025},"\u2014":{"d":"2050,-554r0,121r-2050,0r0,-121r2050,0","w":2050},"\u02dc":{"d":"672,-1398r80,0v-16,79,-37,136,-60,171v-48,72,-122,54,-204,24v-77,-28,-108,-23,-135,53r-80,0v18,-87,41,-144,65,-176v46,-62,142,-40,205,-13v66,28,112,19,129,-59","w":1025},"\u2122":{"d":"728,-1458r0,74r-109,0r0,511r-78,0r0,-511r-108,0r0,-74r295,0xm1095,-1456r49,585r-72,0r-24,-410r-76,410r-56,0r-78,-410r-24,410r-72,0r51,-585r72,0r78,404r82,-404r70,0","w":1706},"\u0161":{"d":"416,-1462r105,0r-148,349r-176,0r-150,-349r107,0r131,211xm342,-845v-96,0,-147,104,-96,189v27,45,89,87,127,123v74,66,134,161,137,283v3,156,-122,269,-280,266v-73,-1,-114,-13,-175,-37r0,-188v60,45,113,68,158,68v68,0,125,-52,125,-119v0,-70,-87,-158,-143,-205v-69,-57,-136,-153,-138,-267v-3,-148,117,-270,265,-270v44,0,98,14,162,41r0,184v-43,-45,-91,-68,-142,-68","w":560},"\u203a":{"d":"176,-925r232,437r-232,433r-117,-62r205,-371r-205,-377","w":472},"\u0153":{"d":"396,-998v110,0,158,45,217,116v53,-82,131,-123,232,-123v109,0,186,39,232,117v49,83,73,226,73,431r-449,0v0,84,5,146,15,187v23,93,69,139,139,139v78,0,122,-101,119,-197r168,0v1,222,-95,346,-306,346v-116,0,-168,-45,-219,-123v-61,77,-106,123,-223,123v-102,0,-180,-35,-234,-104v-64,-82,-96,-215,-96,-398v0,-288,66,-514,332,-514xm701,-601r277,0v0,-93,-12,-159,-31,-198v-37,-77,-173,-76,-212,0v-20,40,-34,105,-34,198xm275,-787v-56,91,-49,479,2,575v49,93,168,95,214,8v53,-62,49,-414,25,-507v-23,-89,-70,-134,-143,-134v-45,0,-75,21,-98,58","w":1205},"\u0178":{"d":"435,-1697v0,-64,44,-105,108,-105v62,0,107,42,107,103v0,64,-41,102,-105,102v-61,0,-110,-41,-110,-100xm129,-1697v0,-64,44,-105,109,-105v63,0,108,43,108,105v0,62,-42,100,-106,100v-60,0,-111,-42,-111,-100xm568,-1462r205,0r-281,841r0,621r-199,0r0,-621r-277,-841r203,0r139,462v16,64,23,116,34,180r47,-219"},"\u00a0":{"w":1025},"\u00a1":{"d":"369,0r-180,0r0,-1105r180,0r0,1105xm392,-1351v0,62,-50,109,-113,109v-67,0,-115,-44,-115,-111v0,-66,47,-111,113,-111v65,0,115,47,115,113","w":556},"\u00a2":{"d":"484,-1238v50,10,66,17,108,41r0,168v-81,-68,-172,-54,-218,45v-45,96,-48,415,-4,512v43,96,140,98,222,35r0,185v-48,19,-65,30,-108,33r0,190r-92,0r0,-190v-195,-55,-240,-225,-240,-499v0,-296,40,-448,240,-520r0,-191r92,0r0,191"},"\u00a3":{"d":"529,-156v39,-4,54,-34,68,-72r159,52v-48,117,-87,186,-213,197v-74,6,-180,-95,-272,-95v-31,0,-59,22,-82,66r-156,-51v39,-123,86,-206,231,-181v40,-92,37,-214,0,-314r-172,0r0,-88r136,0v-78,-202,-124,-271,-130,-475v-7,-216,140,-365,353,-365v195,0,307,111,305,309r-155,72v-1,-136,-30,-211,-152,-211v-111,0,-166,82,-162,199v7,202,51,263,129,471r189,0r0,88r-164,0v28,141,24,236,-33,349v46,23,76,43,121,49"},"\u00a4":{"d":"1037,-888v1,120,-32,179,-84,259r203,205r-72,71r-202,-203v-76,52,-142,87,-259,87v-124,0,-171,-28,-258,-87r-209,203r-68,-71r205,-205v-50,-74,-84,-147,-84,-257v0,-120,30,-174,84,-256r-205,-203r68,-76r209,207v88,-61,136,-88,258,-88v112,0,182,35,259,88r202,-207r72,76r-203,203v52,72,82,143,84,254xm310,-884v0,163,149,312,313,312v170,0,314,-148,314,-318v0,-164,-149,-311,-312,-311v-165,0,-315,151,-315,317","w":1240},"\u00a5":{"d":"824,-728r0,76r-307,0r-13,31r0,621r-176,0r0,-621r-12,-31r-304,0r0,-76r281,0r-57,-172r-224,0r0,-78r201,0r-162,-484r172,0r193,714r141,-520v27,-96,45,-161,56,-194r172,0r-160,484r199,0r0,78r-223,0r-60,172r283,0","w":832},"\u00a6":{"d":"576,-1433r0,761r-127,0r0,-761r127,0xm576,-408r0,757r-127,0r0,-757r127,0","w":1025},"\u00a7":{"d":"513,-1113v-2,-118,-13,-209,-105,-209v-77,0,-115,41,-115,123v0,115,38,149,118,203v150,101,314,178,307,430v-5,173,-64,259,-185,322v93,87,144,131,148,287v5,187,-115,330,-296,328v-210,-3,-289,-142,-289,-367r173,0v0,113,23,202,112,207v123,6,159,-182,89,-274v-27,-36,-73,-81,-144,-128v-156,-103,-258,-164,-258,-373v0,-172,70,-268,184,-344v-84,-75,-132,-131,-135,-267v-4,-171,113,-310,279,-307v209,4,289,143,289,369r-172,0xm394,-781v-184,0,-176,414,4,414v90,0,131,-103,131,-207v0,-107,-42,-207,-135,-207","w":781},"\u00a8":{"d":"556,-1273v0,-64,44,-105,108,-105v60,0,109,43,109,103v0,64,-43,102,-107,102v-61,0,-110,-41,-110,-100xm252,-1273v0,-63,46,-105,109,-105v61,0,108,42,108,103v0,64,-43,102,-108,102v-60,0,-109,-41,-109,-100","w":1025},"\u00a9":{"d":"119,-722v0,-388,344,-740,730,-740v399,0,740,338,740,736v0,393,-341,734,-734,734v-384,0,-736,-347,-736,-730xm205,-726v0,336,308,646,644,646v348,0,652,-299,652,-646v0,-346,-302,-648,-648,-648v-342,0,-648,307,-648,648xm990,-1043v-63,-39,-165,-37,-207,23v-78,72,-82,423,-29,535v46,98,134,111,236,59r0,112v-42,20,-74,30,-129,31v-89,0,-152,-40,-197,-115v-82,-136,-81,-532,3,-666v68,-108,191,-149,323,-94r0,115","w":1706},"\u00aa":{"d":"248,-1472v67,0,98,32,133,78r0,-66r127,0r0,689r-127,0r0,-67v-38,47,-63,79,-129,79v-59,0,-102,-20,-129,-59v-37,-54,-55,-155,-55,-303v0,-234,60,-351,180,-351xm214,-1297v-24,66,-24,303,-1,367v25,71,120,72,149,2v25,-62,27,-312,-2,-372v-34,-68,-117,-76,-146,3","w":601},"\u00ab":{"d":"480,-488r201,371r-113,62r-236,-433r236,-437r113,60xm185,-488r202,371r-110,62r-236,-433r236,-437r110,60","w":722},"\u00ac":{"d":"1453,-861r0,504r-116,0r0,-387r-1085,0r0,-117r1201,0","w":1706},"\u00ad":{"d":"484,-572r0,164r-408,0r0,-164r408,0","w":560},"\u00ae":{"d":"119,-718v0,-392,340,-744,730,-744v400,0,740,338,740,738v0,394,-344,732,-738,732v-382,0,-732,-345,-732,-726xm855,-80v292,-11,461,-153,570,-346v50,-89,73,-177,76,-302v8,-345,-304,-646,-648,-646v-349,0,-646,301,-646,650v0,337,311,656,648,644xm1068,-961v0,138,-52,195,-168,221r211,432r-129,0r-201,-428r-4,0r0,428r-117,0r0,-877r144,0v178,1,264,54,264,224xm777,-802v131,-1,168,-19,168,-141v0,-132,-26,-134,-168,-137r0,278","w":1706},"\u00af":{"d":"1025,-1566r0,121r-1025,0r0,-121r1025,0","w":1025},"\u00b0":{"d":"127,-1214v0,-151,127,-278,279,-278v150,0,277,126,277,276v0,152,-125,279,-277,279v-152,0,-279,-125,-279,-277xm238,-1216v0,94,76,170,170,170v90,0,166,-79,166,-170v0,-90,-77,-168,-168,-168v-92,0,-168,76,-168,168","w":820},"\u00b1":{"d":"1453,-836r0,114r-541,0r0,345r-115,0r0,-345r-545,0r0,-114r545,0r0,-345r115,0r0,345r541,0xm1453,-156r0,115r-1201,0r0,-115r1201,0","w":1706},"\u00b2":{"d":"258,-1363v-92,0,-91,105,-94,194r-121,0v-11,-192,56,-295,217,-299v134,-3,216,86,216,222v0,111,-50,193,-95,268r-172,285r248,0r0,113r-436,0r256,-466v39,-73,67,-124,67,-215v0,-68,-29,-102,-86,-102","w":521},"\u00b3":{"d":"459,-1238v-1,115,-33,174,-119,201v97,24,129,71,129,203v0,146,-21,185,-103,235v-81,49,-236,40,-288,-25v-31,-39,-49,-100,-49,-186r110,0v0,91,32,136,97,136v73,0,110,-52,110,-156v0,-133,-48,-160,-182,-158r0,-96v131,3,174,-16,170,-154v-3,-95,-31,-138,-102,-127v-78,13,-61,55,-76,143r-113,0v-5,-163,54,-243,203,-246v135,-3,215,92,213,230","w":521},"\u00b4":{"d":"556,-1462r180,0r-240,345r-104,0","w":1025},"\u00b5":{"d":"232,-428v-44,203,74,370,273,306v158,-51,229,-205,272,-399r121,-547r156,0r-146,681v-27,130,-41,198,-41,205v3,54,42,64,107,65r-25,125r-94,10v-101,-2,-129,-51,-146,-147v-56,87,-161,150,-293,150v-127,0,-196,-57,-260,-142r-113,545r-152,0r314,-1492r160,0","w":1130},"\u00b6":{"d":"76,-1136v-3,-208,176,-346,393,-346r480,0r0,80r-125,0r0,1402r-96,0r0,-1402r-179,0r0,1402r-96,0r0,-785v-232,-26,-373,-117,-377,-351","w":1025},"\u00b7":{"d":"221,-623v-86,0,-164,-71,-164,-156v0,-86,71,-164,156,-164v86,0,164,71,164,156v0,88,-68,164,-156,164","w":426},"\u2219":{"d":"221,-623v-86,0,-164,-71,-164,-156v0,-86,71,-164,156,-164v86,0,164,71,164,156v0,88,-68,164,-156,164","w":426},"\u00b8":{"d":"574,275v1,-78,-68,-74,-150,-74r0,-201r84,0r0,92v137,0,204,58,205,191v1,124,-80,196,-207,195v-57,0,-131,-15,-221,-45r0,-121v72,24,122,45,193,47v58,2,95,-28,96,-84","w":1025},"\u00b9":{"d":"332,-1453r0,873r-123,0r0,-769r-117,0r0,-104r240,0","w":521},"\u00ba":{"d":"525,-1113v2,204,-59,354,-240,354v-164,0,-226,-168,-226,-358v0,-195,60,-353,230,-353v189,0,234,142,236,357xm214,-931v31,77,128,73,160,3v26,-58,26,-301,5,-364v-24,-72,-126,-93,-162,-22v-30,59,-30,315,-3,383","w":588},"\u00bb":{"d":"449,-925r232,437r-232,433r-117,-62r205,-371r-205,-377xm152,-925r235,437r-235,433r-111,-62r199,-371r-199,-377","w":722},"\u00bc":{"d":"316,-1458r0,816r-115,0r0,-715r-113,0r0,-101r228,0xm1041,-1482r136,0r-880,1498r-141,0xm1294,-312r0,93r-68,0r0,219r-113,0r0,-219r-252,0r0,-109r260,-488r105,0r0,504r68,0xm949,-312r164,0r0,-326","w":1337},"\u00bd":{"d":"316,-1458r0,816r-115,0r0,-715r-113,0r0,-101r228,0xm1041,-1482r136,0r-880,1498r-141,0xm1101,-728v-101,0,-107,72,-105,174r-114,0v-10,-171,51,-272,202,-272v128,0,210,74,210,201v0,86,-56,196,-93,256r-164,264r236,0r0,105r-416,0r244,-433v37,-66,63,-120,63,-207v0,-59,-21,-88,-63,-88","w":1337},"\u00be":{"d":"209,-1371v-51,13,-57,73,-61,133r-105,0v-7,-153,56,-232,207,-230v65,2,145,42,160,94v21,30,29,83,29,130v0,103,-37,162,-111,176v114,14,125,127,119,254v-7,157,-178,221,-331,164v-63,-24,-90,-109,-87,-203r106,0v-8,31,5,92,25,103v19,11,33,26,66,22v120,11,121,-171,83,-260v-28,-33,-92,-35,-153,-37r0,-88r41,0v102,4,123,-41,123,-142v0,-86,-32,-126,-103,-123xm1041,-1482r136,0r-880,1498r-141,0xm1294,-312r0,95r-68,0r0,217r-113,0r0,-217r-252,0r0,-111r260,-488r105,0r0,504r68,0xm949,-312r164,0r0,-326","w":1337},"\u00bf":{"d":"535,-357v-2,252,-37,371,-260,371v-113,0,-186,-31,-220,-94v-27,-50,-41,-152,-41,-307v0,-160,17,-271,51,-333v28,-51,73,-77,134,-77r0,-308r172,0r0,433v-73,0,-121,14,-143,43v-48,39,-52,346,-20,431v24,63,108,72,138,19v17,-31,25,-90,25,-178r164,0xm404,-1374v0,65,-49,109,-115,109v-67,0,-117,-41,-117,-106v0,-67,50,-115,117,-115v66,0,115,46,115,112","w":560},"\u00c0":{"d":"545,-1462r341,1462r-197,0r-72,-289r-332,0r-70,289r-199,0r345,-1462r184,0xm320,-453r260,0r-127,-631xm408,-1937r164,344r-105,0r-239,-344r180,0","w":900},"\u00c1":{"d":"545,-1462r341,1462r-197,0r-72,-289r-332,0r-70,289r-199,0r345,-1462r184,0xm320,-453r260,0r-127,-631xm496,-1937r181,0r-240,344r-105,0","w":900},"\u00c2":{"d":"541,-1937r148,348r-105,0r-131,-213r-133,213r-105,0r150,-348r176,0xm545,-1462r341,1462r-197,0r-72,-289r-332,0r-70,289r-199,0r345,-1462r184,0xm320,-453r260,0r-127,-631","w":900},"\u00c3":{"d":"545,-1462r341,1462r-197,0r-72,-289r-332,0r-70,289r-199,0r345,-1462r184,0xm320,-453r260,0r-127,-631xm613,-1874r80,0v-17,81,-38,137,-60,172v-62,98,-177,9,-272,9v-31,0,-54,22,-68,67r-80,0v16,-74,17,-96,47,-147v37,-62,75,-80,150,-64v45,10,90,36,135,37v34,0,57,-25,68,-74","w":900},"\u00c4":{"d":"496,-1751v0,-60,48,-104,109,-104v62,0,108,43,108,104v0,63,-43,103,-108,103v-60,0,-109,-43,-109,-103xm193,-1751v0,-58,47,-104,106,-104v65,0,110,41,109,104v0,64,-43,103,-109,103v-60,0,-106,-44,-106,-103xm545,-1462r341,1462r-197,0r-72,-289r-332,0r-70,289r-199,0r345,-1462r184,0xm320,-453r260,0r-127,-631","w":900},"\u00c5":{"d":"228,-1749v0,-126,112,-225,252,-225v99,0,197,121,197,223v0,126,-95,226,-220,226v-126,0,-229,-98,-229,-224xm344,-1751v0,62,48,107,109,107v62,0,107,-45,107,-107v0,-61,-46,-104,-107,-104v-61,0,-109,43,-109,104xm545,-1462r341,1462r-197,0r-72,-289r-332,0r-70,289r-199,0r345,-1462r184,0xm320,-453r260,0r-127,-631","w":900},"\u00c6":{"d":"1177,-189r37,189r-525,0r-60,-289r-344,0r-70,289r-199,0r349,-1462r547,0r41,177r-344,0r92,436r308,0r37,172r-314,0r100,488r345,0xm320,-453r277,0r-132,-689","w":1205},"\u00c7":{"d":"431,-209v92,66,214,37,305,-14r0,190v-66,32,-125,51,-213,51v-296,0,-433,-266,-433,-594v0,-404,23,-757,297,-874v112,-48,235,-41,349,9r0,188v-115,-54,-202,-59,-300,3v-61,39,-117,144,-133,214v-35,155,-28,375,-11,536v12,119,61,236,139,291xm545,275v1,-78,-67,-74,-149,-74r0,-201r84,0r0,92v137,0,204,58,205,191v1,123,-84,197,-209,195v-57,0,-131,-15,-220,-45r0,-121v69,23,124,45,193,47v58,2,95,-28,96,-84","w":781},"\u00c8":{"d":"709,-185r0,185r-584,0r0,-1462r584,0r0,177r-389,0r0,436r357,0r0,172r-357,0r0,492r389,0xm373,-1937r164,344r-104,0r-240,-344r180,0"},"\u00c9":{"d":"709,-185r0,185r-584,0r0,-1462r584,0r0,177r-389,0r0,436r357,0r0,172r-357,0r0,492r389,0xm461,-1937r181,0r-240,344r-105,0"},"\u00ca":{"d":"709,-185r0,185r-584,0r0,-1462r584,0r0,177r-389,0r0,436r357,0r0,172r-357,0r0,492r389,0xm504,-1937r148,348r-105,0r-131,-211r-131,211r-105,0r148,-348r176,0"},"\u00cb":{"d":"461,-1751v0,-61,46,-104,107,-104v63,0,109,42,109,104v0,63,-46,103,-109,103v-62,0,-107,-42,-107,-103xm156,-1751v0,-60,47,-104,108,-104v61,0,109,43,109,104v0,64,-43,103,-109,103v-61,0,-108,-42,-108,-103xm709,-185r0,185r-584,0r0,-1462r584,0r0,177r-389,0r0,436r357,0r0,172r-357,0r0,492r389,0"},"\u00cc":{"d":"328,-1462r0,1462r-197,0r0,-1462r197,0xm189,-1937r164,344r-105,0r-240,-344r181,0","w":461},"\u00cd":{"d":"328,-1462r0,1462r-197,0r0,-1462r197,0xm277,-1937r180,0r-240,344r-104,0","w":461},"\u00ce":{"d":"320,-1937r149,348r-104,0r-133,-213r-132,213r-104,0r148,-348r176,0xm328,-1462r0,1462r-197,0r0,-1462r197,0","w":461},"\u00cf":{"d":"277,-1751v0,-61,46,-104,108,-104v61,0,107,43,107,104v0,64,-42,103,-107,103v-63,0,-108,-41,-108,-103xm-29,-1751v0,-62,46,-104,109,-104v61,0,109,43,109,104v0,61,-46,103,-109,103v-63,0,-109,-40,-109,-103xm328,-1462r0,1462r-197,0r0,-1462r197,0","w":461},"\u00d0":{"d":"139,-1462v197,1,429,-8,554,54v255,127,279,549,240,928v-21,205,-112,384,-278,446v-116,43,-345,32,-516,34r0,-732r-139,0r0,-162r139,0r0,-568xm638,-1214v-58,-64,-178,-69,-302,-63r0,383r185,0r0,162r-185,0r0,543v138,0,250,3,308,-71v102,-130,106,-407,94,-634v-7,-126,-37,-250,-100,-320","w":1021},"\u00d1":{"d":"579,-1805v60,13,81,-19,93,-69r80,0v-16,81,-38,137,-60,172v-45,71,-133,54,-204,23v-61,-26,-117,-22,-135,53r-80,0v14,-75,35,-129,57,-165v46,-73,143,-55,215,-23v11,4,22,7,34,9xm886,-1462r0,1462r-185,0r-385,-1021r0,1021r-187,0r0,-1462r183,0r385,1013r0,-1013r189,0","w":1013},"\u00d2":{"d":"502,-1482v302,0,412,235,410,574r4,180v7,388,-53,749,-424,749v-139,0,-241,-60,-306,-179v-65,-119,-98,-307,-98,-562v0,-317,36,-582,202,-706v53,-39,125,-56,212,-56xm691,-338v38,-116,30,-276,33,-427v3,-167,-19,-356,-72,-451v-33,-59,-87,-86,-158,-86v-137,0,-205,170,-205,511r0,145v0,135,12,236,43,338v29,93,86,140,174,140v115,0,152,-67,185,-170xm461,-1937r164,344r-104,0r-240,-344r180,0","w":1005},"\u00d3":{"d":"549,-1937r179,0r-240,344r-103,0xm502,-1482v302,0,412,235,410,574r4,180v7,388,-53,749,-424,749v-139,0,-241,-60,-306,-179v-65,-119,-98,-307,-98,-562v0,-317,36,-582,202,-706v53,-39,125,-56,212,-56xm691,-338v38,-116,30,-276,33,-427v3,-167,-19,-356,-72,-451v-33,-59,-87,-86,-158,-86v-137,0,-205,170,-205,511r0,145v0,135,12,236,43,338v29,93,86,140,174,140v115,0,152,-67,185,-170","w":1005},"\u00d4":{"d":"502,-1482v302,0,412,235,410,574r4,180v7,388,-53,749,-424,749v-139,0,-241,-60,-306,-179v-65,-119,-98,-307,-98,-562v0,-317,36,-582,202,-706v53,-39,125,-56,212,-56xm691,-338v38,-116,30,-276,33,-427v3,-167,-19,-356,-72,-451v-33,-59,-87,-86,-158,-86v-137,0,-205,170,-205,511r0,145v0,135,12,236,43,338v29,93,86,140,174,140v115,0,152,-67,185,-170xm592,-1937r148,348r-104,0r-132,-211r-131,211r-104,0r147,-348r176,0","w":1005},"\u00d5":{"d":"502,-1482v302,0,412,235,410,574r4,180v7,388,-53,749,-424,749v-139,0,-241,-60,-306,-179v-65,-119,-98,-307,-98,-562v0,-317,36,-582,202,-706v53,-39,125,-56,212,-56xm691,-338v38,-116,30,-276,33,-427v3,-167,-19,-356,-72,-451v-33,-59,-87,-86,-158,-86v-137,0,-205,170,-205,511r0,145v0,135,12,236,43,338v29,93,86,140,174,140v115,0,152,-67,185,-170xm664,-1874r80,0v-17,81,-38,137,-60,172v-44,72,-133,51,-204,23v-63,-25,-116,-24,-136,53r-80,0v18,-76,18,-95,48,-147v36,-62,76,-80,150,-64v43,9,92,36,135,37v33,0,56,-25,67,-74","w":1005},"\u00d6":{"d":"549,-1751v0,-61,46,-104,107,-104v63,0,109,42,109,104v0,64,-44,103,-109,103v-62,0,-107,-42,-107,-103xm244,-1751v0,-60,48,-104,109,-104v62,0,108,43,108,104v0,63,-43,103,-108,103v-60,0,-109,-43,-109,-103xm502,-1482v302,0,412,235,410,574r4,180v7,388,-53,749,-424,749v-139,0,-241,-60,-306,-179v-65,-119,-98,-307,-98,-562v0,-317,36,-582,202,-706v53,-39,125,-56,212,-56xm691,-338v38,-116,30,-276,33,-427v3,-167,-19,-356,-72,-451v-33,-59,-87,-86,-158,-86v-137,0,-205,170,-205,511r0,145v0,135,12,236,43,338v29,93,86,140,174,140v115,0,152,-67,185,-170","w":1005},"\u00d7":{"d":"937,-611r389,392r-80,80r-391,-392r-386,385r-82,-80r386,-385r-390,-391r80,-82r392,391r383,-383r80,82","w":1706},"\u00d8":{"d":"152,-219v-89,-303,-100,-868,34,-1093v67,-114,173,-170,318,-170v59,0,104,7,137,21v45,19,99,61,161,124r75,-137r76,45r-104,181v79,230,97,635,44,892v-46,221,-153,372,-393,372v-153,0,-208,-54,-295,-147r-88,152r-76,-46xm681,-1138v-32,-94,-75,-160,-179,-160v-77,0,-130,43,-166,124v-43,96,-60,360,-42,548v5,53,5,105,5,157xm324,-340v43,107,65,168,189,168v74,0,127,-42,161,-126v56,-136,62,-488,35,-711","w":1005},"\u00d9":{"d":"890,-1462r0,1075v12,287,-128,408,-390,408v-189,0,-319,-73,-360,-232v-12,-48,-19,-106,-19,-176r0,-1075r191,0r0,1089v0,137,65,205,194,205v127,0,191,-68,191,-205r0,-1089r193,0xm461,-1937r164,344r-104,0r-240,-344r180,0","w":1009},"\u00da":{"d":"549,-1937r179,0r-240,344r-103,0xm890,-1462r0,1075v12,287,-128,408,-390,408v-189,0,-319,-73,-360,-232v-12,-48,-19,-106,-19,-176r0,-1075r191,0r0,1089v0,137,65,205,194,205v127,0,191,-68,191,-205r0,-1089r193,0","w":1009},"\u00db":{"d":"890,-1462r0,1075v12,287,-128,408,-390,408v-189,0,-319,-73,-360,-232v-12,-48,-19,-106,-19,-176r0,-1075r191,0r0,1089v0,137,65,205,194,205v127,0,191,-68,191,-205r0,-1089r193,0xm592,-1937r148,348r-104,0r-132,-211r-131,211r-104,0r147,-348r176,0","w":1009},"\u00dc":{"d":"549,-1751v0,-61,46,-104,107,-104v63,0,109,42,109,104v0,64,-44,103,-109,103v-62,0,-107,-42,-107,-103xm244,-1751v0,-60,48,-104,109,-104v62,0,108,43,108,104v0,63,-43,103,-108,103v-60,0,-109,-43,-109,-103xm890,-1462r0,1075v12,287,-128,408,-390,408v-189,0,-319,-73,-360,-232v-12,-48,-19,-106,-19,-176r0,-1075r191,0r0,1089v0,137,65,205,194,205v127,0,191,-68,191,-205r0,-1089r193,0","w":1009},"\u00dd":{"d":"568,-1462r205,0r-281,841r0,621r-199,0r0,-621r-277,-841r203,0r139,462v16,64,23,116,34,180r47,-219xm441,-1937r180,0r-240,344r-104,0"},"\u00de":{"d":"328,-1164v317,-35,522,112,517,414v-5,224,-130,368,-343,388v-53,5,-109,9,-174,9r0,353r-197,0r0,-1462r197,0r0,298xm328,-529v102,0,172,-5,209,-18v72,-24,107,-96,107,-214v0,-146,-49,-219,-189,-229v-35,-2,-77,-6,-127,-6r0,467","w":898},"\u00df":{"d":"521,-925v170,47,188,133,188,363v0,181,-9,313,-35,393v-49,148,-88,178,-287,177r0,-160v137,-3,138,-116,138,-246v0,-201,-9,-325,-27,-372v-18,-47,-62,-71,-133,-71r0,-147v60,0,97,-13,111,-39v14,-26,20,-93,20,-201v0,-100,-16,-172,-100,-172v-77,0,-112,59,-111,143r0,1257r-176,0r0,-1261v-1,-196,96,-299,287,-299v224,0,272,123,272,365v0,169,-29,220,-147,270","w":781},"\u00e0":{"d":"392,-1462r164,345r-103,0r-240,-345r179,0xm330,-1000v98,0,138,44,191,110r0,-92r180,0r0,982r-180,0r0,-96v-50,74,-107,128,-224,112v-186,-25,-208,-232,-225,-436r0,-80v0,-333,86,-500,258,-500xm252,-521r0,93v0,112,7,213,67,261v53,43,143,16,173,-47v31,-65,33,-227,33,-348v0,-181,-49,-272,-148,-272v-83,0,-125,104,-125,313","w":802},"\u00e1":{"d":"330,-1000v98,0,138,44,191,110r0,-92r180,0r0,982r-180,0r0,-96v-50,74,-107,128,-224,112v-186,-25,-208,-232,-225,-436r0,-80v0,-333,86,-500,258,-500xm252,-521r0,93v0,112,7,213,67,261v53,43,143,16,173,-47v31,-65,33,-227,33,-348v0,-181,-49,-272,-148,-272v-83,0,-125,104,-125,313xm480,-1462r180,0r-240,345r-104,0","w":802},"\u00e2":{"d":"330,-1000v98,0,138,44,191,110r0,-92r180,0r0,982r-180,0r0,-96v-50,74,-107,128,-224,112v-186,-25,-208,-232,-225,-436r0,-80v0,-333,86,-500,258,-500xm252,-521r0,93v0,112,7,213,67,261v53,43,143,16,173,-47v31,-65,33,-227,33,-348v0,-181,-49,-272,-148,-272v-83,0,-125,104,-125,313xm525,-1462r147,349r-104,0r-131,-211r-132,211r-104,0r148,-349r176,0","w":802},"\u00e3":{"d":"330,-1000v98,0,138,44,191,110r0,-92r180,0r0,982r-180,0r0,-96v-50,74,-107,128,-224,112v-186,-25,-208,-232,-225,-436r0,-80v0,-333,86,-500,258,-500xm252,-521r0,93v0,112,7,213,67,261v53,43,143,16,173,-47v31,-65,33,-227,33,-348v0,-181,-49,-272,-148,-272v-83,0,-125,104,-125,313xm197,-1150v21,-120,62,-239,195,-212v45,9,93,37,137,38v33,0,55,-25,68,-74r80,0v-17,80,-38,137,-61,172v-48,72,-122,53,-204,23v-77,-28,-108,-23,-135,53r-80,0","w":802},"\u00e4":{"d":"480,-1271v0,-102,137,-141,194,-68v13,17,23,37,23,66v1,60,-45,100,-107,100v-61,0,-110,-38,-110,-98xm176,-1271v0,-64,44,-107,109,-107v62,0,107,43,107,105v0,62,-44,100,-107,100v-61,0,-109,-40,-109,-98xm330,-1000v98,0,138,44,191,110r0,-92r180,0r0,982r-180,0r0,-96v-50,74,-107,128,-224,112v-186,-25,-208,-232,-225,-436r0,-80v0,-333,86,-500,258,-500xm252,-521r0,93v0,112,7,213,67,261v53,43,143,16,173,-47v31,-65,33,-227,33,-348v0,-181,-49,-272,-148,-272v-83,0,-125,104,-125,313","w":802},"\u00e5":{"d":"209,-1283v1,-126,108,-222,252,-222v107,0,193,113,193,224v0,122,-94,215,-217,215v-129,0,-229,-91,-228,-217xm320,-1287v0,64,47,106,113,106v62,0,108,-41,108,-102v0,-66,-43,-107,-110,-107v-65,0,-111,39,-111,103xm330,-1000v98,0,138,44,191,110r0,-92r180,0r0,982r-180,0r0,-96v-50,74,-107,128,-224,112v-186,-25,-208,-232,-225,-436r0,-80v0,-333,86,-500,258,-500xm252,-521r0,93v0,112,7,213,67,261v53,43,143,16,173,-47v31,-65,33,-227,33,-348v0,-181,-49,-272,-148,-272v-83,0,-125,104,-125,313","w":802},"\u00e6":{"d":"334,-1002v109,0,160,49,211,125v60,-81,105,-125,228,-125v99,0,169,30,212,91v58,82,87,233,87,454r-447,0v0,113,11,196,34,248v23,52,61,78,116,78v86,0,125,-94,123,-197r168,0v2,212,-95,349,-293,349v-134,0,-196,-65,-248,-165v-49,98,-97,156,-222,156v-163,0,-252,-145,-252,-322v0,-192,71,-332,246,-332v81,0,111,19,168,58v-4,-169,-17,-263,-160,-263v-75,0,-112,28,-180,62r0,-172v60,-26,135,-45,209,-45xm625,-601r275,0v0,-93,-12,-156,-30,-195v-35,-76,-171,-73,-209,-2v-22,41,-36,106,-36,197xm223,-326v0,100,38,187,126,187v86,0,123,-82,123,-179v0,-93,-43,-192,-123,-192v-81,0,-126,92,-126,184","w":1134},"\u00e7":{"d":"390,281v5,-81,-66,-81,-150,-80r0,-201r84,0r0,92v136,0,204,58,205,189v1,122,-82,200,-205,197v-94,-2,-142,-20,-224,-45r0,-121v82,27,230,89,285,0v2,-10,1,-23,5,-31xm387,-156v50,0,76,-17,109,-45r0,185v-59,22,-93,39,-158,39v-170,0,-282,-186,-276,-376r-5,-141v4,-167,20,-322,97,-418v85,-105,203,-112,342,-49r0,172v-40,-30,-75,-45,-104,-45v-101,0,-152,117,-152,352v0,217,49,326,147,326","w":525},"\u00e8":{"d":"668,-328v2,210,-93,347,-289,349v-104,0,-181,-43,-238,-125v-77,-109,-94,-344,-73,-540v23,-224,124,-387,369,-352v108,15,180,84,210,192v29,104,36,207,34,347r-449,0v-5,157,5,326,151,326v96,0,110,-89,121,-197r164,0xm232,-601r272,0v0,-93,-11,-158,-28,-196v-28,-62,-125,-73,-178,-29v-51,42,-65,129,-66,225xm328,-1462r164,345r-105,0r-239,-345r180,0","w":740},"\u00e9":{"d":"668,-328v2,210,-93,347,-289,349v-104,0,-181,-43,-238,-125v-77,-109,-94,-344,-73,-540v23,-224,124,-387,369,-352v108,15,180,84,210,192v29,104,36,207,34,347r-449,0v-5,157,5,326,151,326v96,0,110,-89,121,-197r164,0xm232,-601r272,0v0,-93,-11,-158,-28,-196v-28,-62,-125,-73,-178,-29v-51,42,-65,129,-66,225xm416,-1462r181,0r-240,345r-105,0","w":740},"\u00ea":{"d":"668,-328v2,210,-93,347,-289,349v-104,0,-181,-43,-238,-125v-77,-109,-94,-344,-73,-540v23,-224,124,-387,369,-352v108,15,180,84,210,192v29,104,36,207,34,347r-449,0v-5,157,5,326,151,326v96,0,110,-89,121,-197r164,0xm232,-601r272,0v0,-93,-11,-158,-28,-196v-28,-62,-125,-73,-178,-29v-51,42,-65,129,-66,225xm459,-1462r148,349r-105,0r-131,-211r-131,211r-105,0r148,-349r176,0","w":740},"\u00eb":{"d":"416,-1271v0,-63,46,-107,109,-107v63,0,108,43,108,107v0,61,-45,98,-108,98v-61,0,-109,-40,-109,-98xm221,-1173v-65,-1,-106,-40,-108,-98v-2,-61,45,-107,106,-107v64,0,109,42,109,107v0,60,-45,99,-107,98xm668,-328v2,210,-93,347,-289,349v-104,0,-181,-43,-238,-125v-77,-109,-94,-344,-73,-540v23,-224,124,-387,369,-352v108,15,180,84,210,192v29,104,36,207,34,347r-449,0v-5,157,5,326,151,326v96,0,110,-89,121,-197r164,0xm232,-601r272,0v0,-93,-11,-158,-28,-196v-28,-62,-125,-73,-178,-29v-51,42,-65,129,-66,225","w":740},"\u00ec":{"d":"297,-982r0,982r-180,0r0,-982r180,0xm160,-1462r164,